\data\
ngram 1=12470
ngram 2=38009
ngram 3=45942

\1-grams:
-4.6079125	<unk>	0
0	<s>	-0.7206872
-0.9696335	</s>	0
-4.2423353	dangon	-0.0902446
-2.7793381	pro	-0.25483435
-1.6654505	la	-0.17403346
-4.4860597	sukisto	-0.061940666
-3.344978	ja	-0.07117185
-3.1457095	igzestas	-0.1273949
-3.1002326	gilgaj	-0.09087023
-4.3261876	opiroj	-0.061940666
-3.7892172	plini	-0.061940666
-1.7681938	in	-0.30366278
-3.344978	ispiranto	-0.20992517
-3.7892172	roles	-0.09444295
-3.494401	pluraj	-0.061940666
-4.4860597	vagtoroj	-0.061940666
-4.3261876	gilkaj	-0.061940666
-2.615271	ple	-0.19424899
-4.2423353	sireozaj	-0.14194806
-3.0461721	ol	-0.19287038
-3.1148686	aleaj	-0.1011811
-4.2423353	teutimpi	-0.061940666
-2.9446495	multaj	-0.09166259
-4.3261876	rusaj	-0.061940666
-4.3261876	pintrestoj	-0.061940666
-1.5682418	gaj	-0.16202241
-4.2423353	gomponestoj	-0.06194064
-4.2423353	isplores	-0.06194064
-4.4860597	lekon	-0.061940666
-3.9591823	intir	-0.061940666
-4.2423353	sono	-0.14194806
-3.7240367	goloro	-0.30098507
-2.356714	gun	-0.1604538
-3.2971406	sea	-0.092961796
-3.6673744	dua	-0.061940666
-3.6673744	idzo	-0.08060354
-4.4860597	carlos	-0.061940666
-4.4860597	thompson	-0.061940666
-2.615271	ŝe	-0.14187638
-3.5723324	fefes	-0.16476916
-3.0723617	ĉivi	-0.12451179
-4.0780797	sfeslando	-0.22049086
-2.86242	teo	-0.19007805
-3.214858	ogazas	-0.11008353
-3.7892172	vranca	-0.07586207
-3.9591823	etala	-0.061940666
-3.7892172	hespana	-0.061940666
-3.9591823	kirmana	-0.10010457
-4.2423353	eslanda	-0.06194064
-4.3261876	kriga	-0.061940666
-2.412051	me	-0.18375991
-2.2511492	ni	-0.22937925
-4.4860597	gulpas	-0.061940666
-2.321787	pre	-0.20401219
-1.8323383	istas	-0.20871036
-2.2159448	por	-0.18138145
-4.3261876	triiki	-0.061940666
-3.8659375	entirisa	-0.13402027
-3.6673744	akado	-0.08700707
-2.654701	ĉi	-0.2889046
-4.4860597	gaspea	-0.061940666
-3.7892172	maro	-0.24872626
-3.9591823	cintra	-0.061940666
-3.7892172	azeo	-0.17115217
-3.5723324	deras	-0.27947843
-3.5723324	senjoreno	-0.07788779
-4.4860597	gapsguanti	-0.061940666
-4.2423353	parolos	-0.06194064
-2.9548266	lea	-0.09917062
-3.4601207	hestoreo	-0.32343382
-4.4860597	ragontata	-0.061940666
-3.9591823	unua	-0.061940666
-4.4860597	ĉapetro	-0.061940666
-1.5443865	di	-0.3027234
-4.4860597	ifankileo	-0.061940666
-2.7933092	laŭ	-0.17928566
-4.2423353	lugo	-0.28947777
-4.2423353	unuaj	-0.061940666
-3.5723324	domoj	-0.1500089
-4.0780797	gonstrueĝes	-0.061940666
-3.320401	apud	-0.23478946
-4.3261876	muilijo	-0.061940666
-4.4860597	andrio	-0.061940666
-4.2423353	enter	-0.14194806
-2.888138	du	-0.08700707
-4.3261876	nafoj	-0.061940666
-3.0214725	setuas	-0.38220912
-3.9591823	fasta	-0.061940666
-4.3261876	golono	-0.18825722
-2.1482406	istes	-0.15210421
-4.3261876	retoj	-0.18825722
-4.3261876	idzeĝo	-0.18825722
-3.7240367	morto	-0.19428247
-2.9154751	posti	-0.21167326
-2.1851277	le	-0.231623
-4.4860597	logsedeĝes	-0.061940666
-4.0780797	budapiŝto	-0.16097508
-3.7240367	ĝi	-0.10849857
-4.4860597	gonsedireĝas	-0.061940666
-3.8659375	sembolo	-0.39658213
-4.2423353	urbito	-0.06194064
-4.4860597	idzen	-0.061940666
-4.4860597	admerata	-0.061940666
-4.3261876	malsata	-0.18825722
-4.3261876	bilika	-0.06194064
-2.4332144	angaŭ	-0.18105124
-4.4860597	icgholdtputo	-0.061940666
-2.4587357	il	-0.21802357
-3.4601207	eu	-0.073041886
-3.494401	logo	-0.15153435
-4.3261876	scias	-0.061940666
-3.178909	gei	-0.18957177
-4.4860597	subete	-0.061940666
-4.4860597	igsonas	-0.061940666
-4.2423353	dolĉa	-0.06194064
-3.5723324	muzego	-0.13740017
-4.4860597	vlutestoj	-0.061940666
-3.2340138	teuj	-0.08202901
-4.4860597	eragaj	-0.061940666
-4.4860597	melitestoj	-0.061940666
-3.3987446	teom	-0.1159909
-4.3261876	vorkisimaj	-0.061940666
-4.4860597	niobiimaj	-0.061940666
-4.4860597	dipost	-0.061940666
-2.924984	teu	-0.13283508
-3.6673744	mominto	-0.061940666
-4.3261876	mofeĝas	-0.06194064
-4.4860597	helpes	-0.061940666
-4.4860597	malreĉulojn	-0.061940666
-2.5923297	pir	-0.13215016
-4.3261876	sinpakaj	-0.061940666
-4.4860597	guraceloj	-0.061940666
-4.3261876	pronomoj	-0.061940666
-2.8077447	ne	-0.12611698
-4.4860597	pricezekas	-0.061940666
-4.4860597	sigson	-0.061940666
-2.57054	aŭ	-0.09672118
-4.4860597	kramatekan	-0.061940666
-4.4860597	nombron	-0.061940666
-2.7862675	ele	-0.10946372
-4.4860597	estanbulo	-0.061940666
-3.9591823	madredo	-0.10010457
-4.4860597	togeo	-0.061940666
-3.344978	ĉu	-0.14220995
-2.8077447	fe	-0.18113181
-3.4601207	pofus	-0.07429303
-3.7892172	parole	-0.120522544
-4.0780797	malrapedi	-0.120522544
-3.0336466	ogazes	-0.21175814
-4.2423353	nigutema	-0.06194064
-3.8659375	ifoluo	-0.22792187
-2.924984	ĉe	-0.24945615
-3.9591823	produgtado	-0.22792187
-3.7240367	nineo	-0.11360937
-3.3710299	krafa	-0.08605201
-4.4860597	fispirmanĝo	-0.061940666
-3.6172585	gara	-0.10511978
-3.6172585	patro	-0.15980764
-4.4860597	plefoli	-0.061940666
-4.4860597	sedos	-0.061940666
-3.6673744	teal	-0.07429303
-3.1148686	lenkfo	-0.20237811
-3.9591823	enstruminto	-0.10815695
-4.0780797	objigto	-0.061940666
-4.3261876	velozoveo	-0.061940666
-2.7725174	hafas	-0.117291614
-4.4860597	lephararon	-0.061940666
-3.320401	sola	-0.11327352
-3.7892172	firgo	-0.061940666
-4.2423353	lognomo	-0.10010457
-4.3261876	seknefas	-0.061940666
-4.4860597	agfovortegaĵo	-0.061940666
-4.4860597	ĝirmo	-0.061940666
-3.1002326	urbo	-0.119332425
-3.7240367	vortegaĵo	-0.1131465
-3.9591823	giltoj	-0.061940666
-4.2423353	safeta	-0.14194806
-3.6673744	juna	-0.12943244
-3.6673744	fereno	-0.15680328
-4.3261876	malapiras	-0.061940666
-4.4860597	defes	-0.061940666
-3.1965117	fen	-0.26212955
-3.531621	fede	-0.10010457
-4.4860597	adeaŭe	-0.061940666
-3.8659375	tuta	-0.061940666
-4.4860597	morgaŭa	-0.061940666
-3.4601207	tako	-0.10849857
-2.5378015	sid	-0.15935387
-3.4601207	nofa	-0.08907632
-4.4860597	presirĉado	-0.061940666
-4.2423353	montres	-0.06194064
-2.4858506	gi	-0.31018955
-2.5878835	ĝe	-0.20887904
-4.2423353	rara	-0.06194064
-4.4860597	supozeti	-0.061940666
-4.4860597	ĉeuogazi	-0.061940666
-3.275063	si	-0.12751795
-4.3261876	sukcisas	-0.061940666
-3.9591823	pofos	-0.061940666
-3.9591823	uze	-0.061940666
-3.9591823	neajn	-0.061940666
-4.4860597	poŝtilivonojn	-0.061940666
-4.4860597	aŭsgultu	-0.061940666
-4.3261876	repites	-0.061940666
-4.3261876	situas	-0.061940666
-3.6673744	gfartalo	-0.103746206
-4.4860597	ĉejoda	-0.061940666
-4.4860597	togio	-0.061940666
-3.8659375	japaneo	-0.46352893
-4.4860597	imocii	-0.061940666
-2.6445029	one	-0.136686
-3.7892172	sintas	-0.061940666
-3.0860736	sin	-0.09223428
-3.7240367	malple	-0.061940666
-3.214858	boni	-0.12424996
-3.2971406	fea	-0.1248005
-3.9591823	ragonto	-0.10010457
-4.4860597	sigekas	-0.061940666
-2.8381405	men	-0.23509057
-4.4860597	porgo	-0.061940666
-4.4860597	manĝonta	-0.061940666
-4.2423353	matirealo	-0.06194064
-4.4860597	abundes	-0.061940666
-3.3710299	firi	-0.09439607
-4.4860597	tiroresma	-0.061940666
-4.2423353	danĝiro	-0.14194806
-3.4601207	tea	-0.073634066
-2.9868724	trofeĝas	-0.20268686
-3.4283493	rikeono	-0.15228955
-4.4860597	lombardeo	-0.061940666
-3.494401	mizi	-0.20871873
-2.7399344	entir	-0.15934984
-3.6172585	urboj	-0.10815695
-4.3261876	gomo	-0.061940666
-2.8460839	kaj	-0.0715338
-4.4860597	melan	-0.061940666
-3.275063	tro	-0.06843638
-4.0780797	malvorta	-0.22049086
-4.4860597	seknoj	-0.061940666
-4.4860597	zodeago	-0.061940666
-3.9591823	juneo	-0.120522544
-4.4860597	ĝimiloj	-0.061940666
-4.4860597	gangro	-0.061940666
-2.8708248	tamin	-0.15964113
-3.344978	nineu	-0.07202088
-4.4860597	igmofes	-0.061940666
-2.86242	sen	-0.15076223
-4.0780797	dogtoro	-0.061940666
-4.4860597	redikes	-0.061940666
-3.0461721	teil	-0.109184675
-3.8659375	malsupra	-0.10010457
-4.4860597	mintono	-0.061940666
-4.4860597	trimitades	-0.061940666
-3.531621	sami	-0.14912273
-2.5073593	geil	-0.10537667
-3.9591823	dega	-0.10010457
-4.2423353	fintro	-0.06194064
-3.6673744	fi	-0.061940666
-4.2423353	stulta	-0.14194806
-3.7892172	plurvoji	-0.08443431
-4.3261876	afrego	-0.061940666
-4.4860597	bosneohircikofeno	-0.061940666
-4.0780797	temes	-0.10815695
-2.879395	jam	-0.15538095
-4.4860597	mortenta	-0.061940666
-4.4860597	igplores	-0.061940666
-4.2423353	gompato	-0.14194806
-4.4860597	ĉakrino	-0.061940666
-2.888138	post	-0.1770896
-3.7240367	mallonka	-0.08700707
-4.4860597	gunistado	-0.061940666
-4.3261876	spirtes	-0.061940666
-2.7526758	tri	-0.09875652
-3.531621	defirsajn	-0.06194064
-4.2423353	avirojn	-0.06194064
-2.924984	iĉ	-0.14173943
-3.2340138	vareĝes	-0.07732804
-4.4860597	amoresteno	-0.061940666
-3.1300154	tre	-0.08626145
-4.4860597	sereoj	-0.061940666
-4.3261876	tignegaj	-0.061940666
-4.3261876	ŝanĝoj	-0.18825722
-4.3261876	analezas	-0.061940666
-3.8659375	feajn	-0.06194064
-4.4860597	fezetojn	-0.061940666
-4.0780797	prafas	-0.22049086
-3.3710299	ŝea	-0.08502665
-4.3261876	edolo	-0.061940666
-2.965248	plij	-0.1449949
-4.3261876	vileĉa	-0.061940666
-3.4601207	fefo	-0.16552858
-4.4860597	senovira	-0.061940666
-4.2423353	vefo	-0.06194064
-4.2423353	temas	-0.061940666
-3.8659375	meaj	-0.06194064
-3.6673744	gruroj	-0.20899558
-3.3987446	istos	-0.061940666
-4.2423353	malvortaj	-0.06194064
-3.0096302	tei	-0.17944191
-3.3987446	vungceas	-0.15996923
-4.3261876	idugijo	-0.061940666
-4.4860597	aristetaj	-0.061940666
-3.9591823	envanoj	-0.22792187
-4.4860597	neneam	-0.061940666
-3.4601207	fedes	-0.14682168
-4.4860597	fagonaron	-0.061940666
-4.3261876	inerijo	-0.08443431
-4.0780797	setues	-0.120522544
-4.3261876	gorto	-0.06194064
-3.344978	sub	-0.3505074
-4.4860597	ŝtuparijo	-0.061940666
-4.0780797	vungcees	-0.120522544
-4.2423353	mallebirijo	-0.14194806
-3.0336466	angoraŭ	-0.11573256
-4.2423353	rikula	-0.06194064
-4.3261876	per	-0.06194064
-4.4860597	afeadelo	-0.061940666
-3.4601207	veni	-0.20878036
-3.1002326	deres	-0.22548077
-4.3261876	hafu	-0.061940666
-3.9591823	keu	-0.061940666
-4.0780797	pliji	-0.061940666
-4.3261876	miretas	-0.061940666
-4.3261876	ilstares	-0.18825722
-4.2423353	vabregoj	-0.061940666
-4.2423353	sapo	-0.06194064
-4.4860597	varuno	-0.061940666
-4.0780797	fetro	-0.1598836
-4.4860597	ciramego	-0.061940666
-3.9591823	aŭstraleo	-0.14536811
-2.8970606	estas	-0.10089262
-2.7096262	nur	-0.1390295
-4.4860597	modiri	-0.061940666
-3.7240367	gomuna	-0.08060354
-4.3261876	oreentaj	-0.061940666
-4.2423353	ŝtatoj	-0.06194064
-4.2423353	abunda	-0.06194064
-4.0780797	ogcedinti	-0.120522544
-3.7892172	parton	-0.20336005
-2.9061704	da	-0.11623074
-4.4860597	donaces	-0.061940666
-4.0780797	aleajn	-0.061940666
-4.3261876	rigonstrues	-0.061940666
-4.3261876	citiri	-0.06194064
-2.924984	mea	-0.14651822
-4.3261876	raporto	-0.061940666
-4.4860597	varota	-0.061940666
-4.2423353	aranĝo	-0.061940666
-4.4860597	finontan	-0.061940666
-4.4860597	ĵaŭdon	-0.061940666
-3.0214725	nun	-0.15302774
-4.4860597	hijmineranti	-0.061940666
-4.2423353	rimimores	-0.06194064
-4.4860597	tiatraĵon	-0.061940666
-4.0780797	malbonan	-0.061940666
-3.7240367	voji	-0.061940666
-4.4860597	fedetan	-0.061940666
-4.3261876	napoliono	-0.18825722
-2.9981022	do	-0.11490631
-4.4860597	belo	-0.061940666
-4.4860597	objigtefa	-0.061940666
-4.3261876	subjigtefa	-0.18825722
-4.4860597	subdefedeta	-0.061940666
-4.3261876	arkintena	-0.061940666
-4.2423353	nordogcedinto	-0.14194806
-4.3261876	nordoreinto	-0.061940666
-3.5723324	ĝea	-0.061940666
-3.4601207	ĉivurbo	-0.42730147
-3.7240367	plej	-0.10010457
-3.214858	bona	-0.109623626
-4.3261876	gato	-0.061940666
-3.494401	mondo	-0.33216563
-4.4860597	ŝirci	-0.061940666
-4.3261876	dereti	-0.061940666
-4.4860597	cili	-0.061940666
-4.4860597	pinseti	-0.061940666
-3.9591823	hunkaroj	-0.12957585
-3.6673744	alfines	-0.14433926
-3.7240367	gomunumo	-0.10837204
-3.7892172	sinhomeĝes	-0.30098507
-4.3261876	turgoj	-0.10815695
-4.0780797	tioreo	-0.061940666
-4.3261876	ŝatata	-0.061940666
-2.5923297	dum	-0.3333711
-4.3261876	socealesmo	-0.09444295
-3.7240367	irao	-0.14340317
-4.0780797	nineuj	-0.061940666
-4.4860597	prufoj	-0.061940666
-3.2540536	apires	-0.14930332
-4.4860597	arbalciono	-0.061940666
-4.4860597	esinci	-0.061940666
-4.3261876	loĝanto	-0.061940666
-3.1965117	multi	-0.19504155
-3.494401	tiretoreo	-0.18547736
-4.3261876	krom	-0.061940666
-4.4860597	sizonaj	-0.061940666
-4.3261876	mofoj	-0.061940666
-2.8970606	unu	-0.16607273
-4.2423353	gonataj	-0.06194064
-4.2423353	turesmaj	-0.06194064
-4.4860597	celoj	-0.061940666
-4.3261876	patakoneo	-0.18825722
-4.2423353	ŝanĝo	-0.10010457
-3.6673744	bizonas	-0.061940666
-4.4860597	aprobon	-0.061940666
-4.3261876	landa	-0.061940666
-3.9591823	parlaminto	-0.10815695
-3.9591823	jarcinto	-0.12957585
-4.3261876	haves	-0.061940666
-4.2423353	gergon	-0.14194806
-4.4860597	vi	-0.061940666
-3.3987446	recifes	-0.1007818
-4.4860597	venajn	-0.061940666
-4.4860597	dogumintojn	-0.061940666
-4.3261876	patinto	-0.061940666
-4.4860597	eligteta	-0.061940666
-4.0780797	papo	-0.061940666
-4.0780797	folo	-0.1598836
-4.2423353	empireistro	-0.061940666
-3.531621	nuntimpi	-0.11684895
-4.0780797	ĝardino	-0.10010457
-3.2540536	apartinas	-0.7252465
-2.0068111	al	-0.33470672
-4.4860597	ugraenea	-0.061940666
-3.6673744	agadimeo	-0.35787073
-4.4860597	akrigulturaj	-0.061940666
-3.8659375	sceincoj	-0.22792187
-3.7240367	havas	-0.061940666
-4.4860597	bluajn	-0.061940666
-4.4860597	peidojn	-0.061940666
-4.4860597	igzimple	-0.061940666
-4.3261876	tepa	-0.061940666
-3.275063	teis	-0.067320466
-4.3261876	imo	-0.061940666
-4.3261876	simoj	-0.061940666
-4.4860597	junepiro	-0.061940666
-4.4860597	likos	-0.061940666
-2.7793381	ĝen	-0.24861084
-3.7240367	gilgi	-0.7154465
-3.7240367	takoj	-0.35879356
-3.1965117	difas	-0.08962753
-4.4860597	gonvise	-0.061940666
-3.7240367	fines	-0.10815695
-4.2423353	gonateĝe	-0.28947777
-3.7892172	agtoro	-0.14536811
-3.8659375	nomoj	-0.24872626
-4.4860597	nefelo	-0.061940666
-3.6172585	antaŭi	-0.08060354
-4.4860597	gomincaj	-0.061940666
-3.178909	jaroj	-0.24516839
-3.9591823	sugcisaj	-0.16097508
-4.4860597	presgribu	-0.061940666
-4.4860597	apartajn	-0.061940666
-4.4860597	tepojn	-0.061940666
-4.4860597	ferusaj	-0.061940666
-4.4860597	hipatetoj	-0.061940666
-4.3261876	unifirsetato	-0.06194064
-4.3261876	nofi	-0.061940666
-3.7240367	vondes	-0.14340317
-3.9591823	entirnacean	-0.061940666
-4.4860597	enstetuton	-0.061940666
-3.6172585	geis	-0.061940666
-3.7892172	cilo	-0.21878916
-4.4860597	agcele	-0.061940666
-4.4860597	gunlaboron	-0.061940666
-4.4860597	entirŝanĝon	-0.061940666
-4.3261876	gilo	-0.120522544
-3.8659375	gastilo	-0.079139106
-4.4860597	malvrukotiga	-0.061940666
-3.7892172	stelo	-0.24306956
-4.4860597	gongiri	-0.061940666
-4.3261876	nipras	-0.061940666
-4.3261876	batale	-0.061940666
-3.3710299	gontraŭ	-0.2461941
-4.3261876	malreĉico	-0.18825722
-3.7240367	nomata	-0.08060354
-4.0780797	liĝo	-0.120522544
-4.4860597	hubbli	-0.061940666
-3.9591823	fefe	-0.06194064
-4.4860597	moderi	-0.061940666
-4.0780797	entirni	-0.061940666
-3.9591823	nig	-0.061940666
-3.9591823	igstiri	-0.10815695
-4.4860597	vasonado	-0.061940666
-4.3261876	ricipto	-0.061940666
-3.7892172	ŝanĝeĝes	-0.12957585
-4.3261876	malmulte	-0.061940666
-3.7240367	igdi	-0.22352053
-4.2423353	orekena	-0.06194064
-4.0780797	hestorei	-0.061940666
-4.3261876	ĉapilesto	-0.14194806
-3.6673744	jin	-0.08565112
-4.4860597	junaĝo	-0.061940666
-3.6172585	lirnes	-0.11510123
-3.7892172	ispiranton	-0.46352893
-3.9591823	ĉiva	-0.061940666
-4.4860597	menaco	-0.061940666
-3.494401	spiceo	-0.2114601
-4.4860597	ditruo	-0.061940666
-4.4860597	fefmideo	-0.061940666
-3.7892172	jis	-0.092911586
-4.4860597	rifedes	-0.061940666
-3.161992	ŝen	-0.2507222
-4.4860597	bidaŭras	-0.061940666
-2.9759257	teon	-0.18080008
-4.4860597	ibrea	-0.061940666
-3.3710299	geon	-0.22017461
-3.9591823	atinde	-0.061940666
-3.8659375	ruseo	-0.22792187
-4.0780797	pollando	-0.061940666
-4.2423353	aŭtoro	-0.120522544
-4.4860597	artekoloj	-0.061940666
-4.4860597	i	-0.061940666
-4.0780797	kfedes	-0.061940666
-4.3261876	gursojn	-0.06194064
-4.4860597	parolades	-0.061940666
-4.3261876	publegi	-0.06194064
-3.0860736	ĉeuj	-0.09673774
-4.3261876	edoj	-0.06194064
-2.965248	hafes	-0.12440037
-4.3261876	ruĝajn	-0.061940666
-3.9591823	ogulojn	-0.10010457
-3.8659375	gromi	-0.08565112
-3.8659375	portas	-0.10010457
-4.0780797	altan	-0.061940666
-4.4860597	voleon	-0.061940666
-4.2423353	entirtimpi	-0.061940666
-4.3261876	studfojaĝes	-0.061940666
-3.9591823	feino	-0.103746206
-4.4860597	hiedilbirk	-0.061940666
-3.9591823	birleno	-0.20947833
-3.531621	baldaŭ	-0.14682168
-3.494401	vormo	-0.25149673
-3.6673744	ibli	-0.07429303
-3.4283493	alea	-0.083731316
-4.3261876	pritirpases	-0.061940666
-4.4860597	eranti	-0.061940666
-4.4860597	gontraŭa	-0.061940666
-4.3261876	derigto	-0.061940666
-3.6673744	daŭri	-0.061940666
-3.9591823	usona	-0.061940666
-4.3261876	dolaro	-0.061940666
-4.4860597	moldafeo	-0.061940666
-3.8659375	ĝinirali	-0.061940666
-4.4860597	agciptata	-0.061940666
-4.4860597	ikonomei	-0.061940666
-4.3261876	stabela	-0.061940666
-4.4860597	pakelo	-0.061940666
-4.2423353	unefirsetataj	-0.06194064
-4.2423353	studoj	-0.061940666
-4.4860597	cluj	-0.061940666
-4.4860597	sperites	-0.061940666
-4.4860597	haltegeta	-0.061940666
-4.3261876	admenestraceaj	-0.061940666
-4.4860597	remidoj	-0.061940666
-3.7892172	supri	-0.10815695
-4.4860597	doneta	-0.061940666
-4.4860597	siria	-0.061940666
-4.4860597	ispremo	-0.061940666
-3.6172585	donas	-0.082340635
-4.3261876	igspleceti	-0.061940666
-3.7240367	tean	-0.061940666
-4.4860597	prizinton	-0.061940666
-3.494401	eo	-0.061940666
-4.4860597	inekma	-0.061940666
-4.2423353	alloka	-0.06194064
-3.9591823	redito	-0.10815695
-4.2423353	mola	-0.06194064
-4.0780797	farma	-0.061940666
-4.2423353	rekardo	-0.14194806
-3.5723324	nasgeĝes	-0.17715144
-3.7892172	loĝes	-0.35642454
-4.0780797	etaleo	-0.24612045
-3.4283493	gfen	-0.15153435
-4.4860597	deminseoj	-0.061940666
-4.3261876	supre	-0.061940666
-4.4860597	solaj	-0.061940666
-4.3261876	aĵoj	-0.061940666
-4.3261876	keon	-0.10815695
-4.3261876	varos	-0.18825722
-4.2423353	bonfolu	-0.10815695
-4.2423353	rekardanti	-0.14194806
-2.9154751	len	-0.20758626
-4.4860597	piti	-0.061940666
-4.3261876	lafes	-0.061940666
-3.7240367	nen	-0.120522544
-3.7240367	ineres	-0.21878916
-4.0780797	ĉambron	-0.14536811
-4.3261876	plumaro	-0.061940666
-4.2423353	enoj	-0.28947777
-3.6673744	plijparti	-0.061940666
-3.7892172	bruna	-0.21878916
-4.0780797	kreza	-0.061940666
-2.8708248	pofas	-0.15531786
-4.4860597	ilire	-0.061940666
-4.4860597	bonŝanci	-0.061940666
-4.4860597	fastalto	-0.061940666
-4.4860597	atintes	-0.061940666
-4.3261876	posta	-0.06194064
-3.275063	timpo	-0.18251465
-4.3261876	gafirno	-0.061940666
-4.3261876	estis	-0.061940666
-3.5723324	uzata	-0.21504083
-4.4860597	fengonsirfado	-0.061940666
-4.4860597	trajtoj	-0.061940666
-4.3261876	pinsekas	-0.061940666
-4.2423353	entirlenkfao	-0.06194064
-4.0780797	uzo	-0.061940666
-2.6651444	de	-0.22630899
-4.4860597	lateneda	-0.061940666
-4.4860597	fortprofezo	-0.061940666
-4.4860597	iblico	-0.061940666
-4.3261876	homaro	-0.06194064
-4.2423353	inirkeon	-0.14194806
-4.2423353	grisges	-0.06194064
-3.344978	defirsaj	-0.0833059
-4.4860597	prizintaĵoj	-0.061940666
-3.531621	igzimpli	-0.09704681
-4.4860597	ispirantoĥoro	-0.061940666
-3.6172585	el	-0.23093028
-4.3261876	laŭzano	-0.061940666
-4.2423353	mekrado	-0.06194064
-3.8659375	ludoj	-0.06194064
-4.4860597	trangfelon	-0.061940666
-3.531621	amego	-0.14912273
-4.0780797	ikali	-0.061940666
-2.654701	geu	-0.11975948
-3.1457095	tuj	-0.12155887
-4.4860597	ilgures	-0.061940666
-3.9591823	maljuna	-0.061940666
-4.3261876	blanghara	-0.061940666
-3.9591823	anjo	-0.18381225
-3.3987446	rapedi	-0.07586207
-4.4860597	dekico	-0.061940666
-4.2423353	pirmises	-0.06194064
-4.4860597	pezarro	-0.061940666
-4.4860597	segfi	-0.061940666
-3.9591823	fojaĝes	-0.10815695
-3.7240367	hespaneo	-0.26454666
-4.4860597	pluan	-0.061940666
-4.3261876	gonstruadon	-0.061940666
-3.8659375	entirrompes	-0.14536811
-4.2423353	mondmeleto	-0.13325061
-4.4860597	sikfantaj	-0.061940666
-4.4860597	desputoj	-0.061940666
-4.2423353	istontico	-0.20947833
-4.4860597	gomerca	-0.061940666
-3.8659375	gultura	-0.120522544
-3.3710299	cintro	-0.4349845
-3.8659375	oreinta	-0.061940666
-4.0780797	marborda	-0.061940666
-4.3261876	ganada	-0.061940666
-4.3261876	firboj	-0.061940666
-3.7240367	fareas	-0.2716434
-4.3261876	kramatega	-0.061940666
-3.7892172	pirsono	-0.09444295
-4.4860597	modalo	-0.061940666
-4.2423353	ini	-0.14194806
-3.275063	homoj	-0.17840777
-3.6673744	keil	-0.06194064
-4.2423353	anemaloj	-0.06194064
-4.4860597	larĝa	-0.061940666
-3.320401	ambaŭ	-0.08852762
-3.8659375	kipatroj	-0.061940666
-4.3261876	rispondicas	-0.061940666
-4.4860597	edozorkado	-0.061940666
-4.3261876	gromnomon	-0.061940666
-4.4860597	dizerata	-0.061940666
-4.4860597	prilikoj	-0.061940666
-4.0780797	times	-0.120522544
-4.4860597	gonkrisa	-0.061940666
-3.344978	lando	-0.15395945
-4.0780797	nomi	-0.061940666
-4.4860597	vrancujo	-0.061940666
-4.4860597	indimea	-0.061940666
-3.8659375	ensulo	-0.103746206
-4.4860597	riuneo	-0.061940666
-4.2423353	ristaĵoj	-0.14194806
-4.3261876	sangtulo	-0.06194064
-4.4860597	fedeblaj	-0.061940666
-4.4860597	grepto	-0.061940666
-4.4860597	gatidralo	-0.061940666
-4.4860597	admenestranto	-0.061940666
-4.4860597	selinti	-0.061940666
-4.0780797	salutes	-0.10815695
-4.4860597	nidubibli	-0.061940666
-4.4860597	lafas	-0.061940666
-4.4860597	tolaĵon	-0.061940666
-4.4860597	gufiton	-0.061940666
-3.8659375	anstataŭ	-0.061940666
-3.9591823	malbona	-0.10010457
-4.2423353	edo	-0.06194064
-3.7240367	uzas	-0.0902446
-4.2423353	mala	-0.06194064
-4.3261876	gurta	-0.061940666
-3.275063	nomo	-0.18314694
-4.3261876	honora	-0.061940666
-3.6172585	unefirsetato	-0.14536811
-4.4860597	ĉambresto	-0.061940666
-3.8659375	ŝajnes	-0.12957585
-3.9591823	ge	-0.10010457
-3.9591823	foĉo	-0.10010457
-4.3261876	prenco	-0.061940666
-3.0590694	tuti	-0.1485073
-4.3261876	ŝanĝeta	-0.061940666
-3.4601207	supir	-0.40702152
-2.5185266	sur	-0.32314965
-3.9591823	lesto	-0.16097508
-4.3261876	micinato	-0.061940666
-4.4860597	rikeona	-0.061940666
-4.3261876	entirnacia	-0.061940666
-3.6673744	mofado	-0.27232295
-3.1965117	estes	-0.12186534
-3.6673744	elea	-0.061940666
-4.4860597	antaŭogupetico	-0.061940666
-4.4860597	mimores	-0.061940666
-4.3261876	antaŭan	-0.061940666
-4.4860597	ogazaĵon	-0.061940666
-4.2423353	fedu	-0.120522544
-4.2423353	artegolon	-0.061940666
-4.3261876	hilina	-0.061940666
-4.3261876	trakideo	-0.061940666
-4.3261876	paseo	-0.061940666
-4.4860597	populareke	-0.061940666
-4.4860597	astronomeon	-0.061940666
-4.3261876	publego	-0.061940666
-3.4601207	sceas	-0.23471774
-4.0780797	gein	-0.061940666
-4.4860597	vorpirdeĝes	-0.061940666
-4.0780797	antaŭa	-0.061940666
-3.7240367	marta	-0.1343118
-4.0780797	valsa	-0.10815695
-3.9591823	vrugto	-0.061940666
-3.6673744	fira	-0.08443431
-3.8659375	aspigtas	-0.061940666
-4.4860597	nugso	-0.061940666
-3.9591823	planto	-0.10010457
-4.2423353	vloras	-0.061940666
-4.0780797	siptimbro	-0.10815695
-3.5723324	berdoj	-0.18517278
-4.4860597	firdan	-0.061940666
-4.3261876	dorson	-0.061940666
-4.4860597	maguloj	-0.061940666
-3.0461721	ji	-0.1832127
-4.3261876	bruno	-0.061940666
-4.4860597	vlafo	-0.061940666
-4.4860597	nekro	-0.061940666
-4.0780797	traduges	-0.10815695
-3.9591823	gantoj	-0.061940666
-2.8708248	en	-0.20888591
-3.9591823	rusa	-0.061940666
-3.1965117	lenkfoj	-0.25853217
-4.3261876	plufo	-0.061940666
-3.9591823	gulmenas	-0.18381225
-4.4860597	malkulmenas	-0.061940666
-4.4860597	vibruari	-0.061940666
-4.3261876	trajno	-0.061940666
-4.3261876	igmofeĝes	-0.18825722
-4.4860597	desi	-0.061940666
-3.1002326	senjoro	-0.21509868
-4.3261876	lii	-0.061940666
-4.0780797	idzeno	-0.061940666
-3.320401	gominces	-0.13454401
-4.4860597	grianti	-0.061940666
-4.0780797	tutan	-0.061940666
-4.3261876	ĝardinon	-0.14194806
-4.4860597	mastreno	-0.06194064
-4.0780797	loĝijo	-0.061940666
-4.2423353	daŭrekes	-0.06194064
-2.83034	sean	-0.102145
-4.4860597	entirparoladon	-0.061940666
-4.4860597	pasentico	-0.061940666
-3.0214725	ovti	-0.08113417
-3.8659375	gaŭzes	-0.06194064
-3.6673744	parti	-0.08443431
-3.9591823	malsamajn	-0.10815695
-4.2423353	rizultojn	-0.14194806
-4.4860597	morteketa	-0.061940666
-4.2423353	lastaj	-0.061940666
-4.4860597	fentra	-0.061940666
-3.531621	meleto	-0.2902925
-4.4860597	vondentoj	-0.061940666
-3.5723324	nacea	-0.061940666
-4.0780797	salono	-0.120522544
-4.3261876	fedaĵoj	-0.061940666
-3.9591823	brazelo	-0.10010457
-3.9591823	marbordo	-0.16763665
-4.3261876	ensperes	-0.061940666
-4.4860597	vormadon	-0.061940666
-4.3261876	rondoj	-0.061940666
-3.6673744	ferenoj	-0.1131465
-3.531621	kirmaneo	-0.22638427
-3.8659375	lemo	-0.11360937
-4.4860597	hodeaŭa	-0.06194064
-3.9591823	landlemo	-0.10010457
-4.4860597	slovageo	-0.061940666
-4.2423353	tatroj	-0.06194064
-3.7240367	loĝata	-0.19616942
-4.3261876	prahestorea	-0.061940666
-3.6673744	ipogo	-0.18517278
-3.4283493	leaj	-0.078870304
-4.2423353	artegoloj	-0.06194064
-4.3261876	hunkaraj	-0.061940666
-4.2423353	etalaj	-0.06194064
-4.2423353	kirmanaj	-0.061940666
-3.7892172	rifuoj	-0.22792187
-4.4860597	feleres	-0.061940666
-4.3261876	kfazaŭ	-0.061940666
-3.3710299	istus	-0.082340635
-4.3261876	spirta	-0.061940666
-4.3261876	maresto	-0.061940666
-3.6172585	eam	-0.061940666
-4.4860597	manuzes	-0.061940666
-4.4860597	derigtelon	-0.061940666
-3.7892172	sedijo	-0.24549021
-3.6673744	rikestaro	-0.103746206
-4.3261876	hako	-0.18825722
-4.4860597	profu	-0.061940666
-4.4860597	ĝia	-0.061940666
-4.4860597	hararo	-0.061940666
-3.7892172	ruĝa	-0.12539467
-4.4860597	gaŝtangolora	-0.061940666
-4.3261876	oranĝa	-0.061940666
-3.9591823	nekraj	-0.061940666
-4.3261876	randoj	-0.061940666
-4.4860597	gompliti	-0.061940666
-4.4860597	rueneĝes	-0.061940666
-4.4860597	ĉesalo	-0.061940666
-4.4860597	fetrogorodanto	-0.061940666
-4.4860597	sgimoj	-0.061940666
-4.4860597	plevacelekas	-0.061940666
-4.4860597	gomprinon	-0.061940666
-4.4860597	jursestimo	-0.061940666
-4.4860597	utelan	-0.061940666
-4.3261876	supirrekardon	-0.061940666
-4.4860597	glasevegi	-0.061940666
-4.4860597	apiri	-0.061940666
-4.3261876	turgeo	-0.061940666
-4.3261876	lebano	-0.061940666
-3.7892172	vranceo	-0.061940666
-4.0780797	sudamirego	-0.120522544
-4.4860597	agadoj	-0.061940666
-4.2423353	rileivas	-0.14194806
-4.4860597	priparo	-0.061940666
-4.4860597	stareko	-0.061940666
-4.4860597	gablotilefedganalo	-0.061940666
-4.4860597	duriro	-0.061940666
-4.2423353	gries	-0.09444295
-4.4860597	blazonon	-0.061940666
-4.4860597	portrites	-0.061940666
-3.3710299	hodeaŭ	-0.10064082
-3.161992	plu	-0.16808428
-4.4860597	nineen	-0.061940666
-4.2423353	eros	-0.06194064
-3.9591823	sempli	-0.061940666
-3.6172585	loĝantaro	-0.12539467
-4.4860597	rebiles	-0.061940666
-4.2423353	soldatoj	-0.061940666
-4.2423353	drasti	-0.06194064
-3.178909	vares	-0.08060354
-4.2423353	ordon	-0.14194806
-3.2971406	geo	-0.1264698
-4.4860597	poluras	-0.061940666
-4.4860597	viajn	-0.061940666
-4.4860597	ŝuojn	-0.061940666
-4.0780797	demandes	-0.120522544
-4.4860597	krevo	-0.061940666
-3.161992	li	-0.09747045
-4.4860597	rikuli	-0.061940666
-4.4860597	mimbres	-0.061940666
-3.8659375	soceito	-0.13402027
-4.4860597	zaminhof	-0.061940666
-4.4860597	krezica	-0.06194064
-3.8659375	berdo	-0.061940666
-3.7892172	difinas	-0.24872626
-4.2423353	gondeĉoj	-0.14194806
-3.5723324	lirnijo	-0.2114601
-4.2423353	semplaj	-0.061940666
-3.0860736	tra	-0.2884347
-4.4860597	goredoro	-0.061940666
-4.3261876	tikminto	-0.061940666
-4.4860597	unueĝes	-0.061940666
-4.4860597	hiensidomo	-0.061940666
-4.4860597	nimekranta	-0.061940666
-4.3261876	subŝtato	-0.061940666
-4.3261876	vloredo	-0.18825722
-4.4860597	ĉergaŭaĵoj	-0.061940666
-4.4860597	migsega	-0.061940666
-4.3261876	kolvo	-0.06194064
-4.0780797	gnabeno	-0.0902446
-4.4860597	edugeta	-0.061940666
-4.4860597	zorki	-0.061940666
-4.3261876	ŝepanoj	-0.061940666
-4.4860597	laŭdas	-0.061940666
-3.7892172	cint	-0.061940666
-3.4601207	spiceoj	-0.25451258
-4.3261876	pardonu	-0.061940666
-4.4860597	enman	-0.061940666
-4.2423353	agcipte	-0.06194064
-3.531621	fean	-0.06194064
-3.8659375	goro	-0.14340317
-4.4860597	finantan	-0.061940666
-4.2423353	gonselon	-0.28947777
-3.4283493	trofes	-0.0902446
-4.4860597	firajn	-0.061940666
-4.4860597	murdentojn	-0.061940666
-4.4860597	sigfanta	-0.061940666
-3.9591823	vareĝos	-0.061940666
-3.9591823	bazo	-0.14194806
-4.0780797	monda	-0.061940666
-4.3261876	potinco	-0.18825722
-4.4860597	peuloj	-0.061940666
-3.531621	mangas	-0.09219878
-4.4860597	piguloj	-0.061940666
-4.4860597	afiraĝan	-0.061940666
-4.3261876	timpiraturon	-0.061940666
-4.3261876	tagsas	-0.061940666
-4.3261876	akrabla	-0.18825722
-4.3261876	aloj	-0.06194064
-4.0780797	logon	-0.061940666
-4.4860597	luterana	-0.061940666
-3.7892172	krupo	-0.11360937
-4.2423353	aranĝas	-0.06194064
-4.4860597	gunfenojn	-0.061940666
-4.0780797	ĝusti	-0.061940666
-4.4860597	rinoveĝes	-0.061940666
-3.9591823	stilo	-0.10815695
-4.3261876	kfen	-0.061940666
-4.4860597	pentoj	-0.061940666
-4.4860597	ronderanta	-0.061940666
-3.8659375	pungto	-0.10010457
-4.3261876	derades	-0.061940666
-3.2971406	mi	-0.1007818
-3.1148686	ĉeam	-0.10577684
-4.3261876	amos	-0.061940666
-4.4860597	vaforas	-0.061940666
-4.4860597	monaĥijon	-0.061940666
-4.4860597	montru	-0.061940666
-4.4860597	isperantesmo	-0.061940666
-4.3261876	dimites	-0.061940666
-3.3710299	seajn	-0.061940666
-4.4860597	envanŝuojn	-0.061940666
-4.4860597	ristu	-0.061940666
-3.8659375	mominton	-0.14194806
-4.3261876	prograste	-0.061940666
-4.4860597	vorsindon	-0.061940666
-4.4860597	aleĝelo	-0.061940666
-4.4860597	aleĝgotezo	-0.061940666
-4.4860597	vamilean	-0.061940666
-4.4860597	viston	-0.061940666
-4.3261876	ho	-0.061940696
-3.4283493	deo	-0.1391139
-3.7240367	gea	-0.061940666
-4.4860597	lugsa	-0.061940666
-4.2423353	aŭto	-0.14194806
-4.2423353	multvoji	-0.06194064
-4.4860597	fakonari	-0.061940666
-4.4860597	bojas	-0.061940666
-4.4860597	mordas	-0.061940666
-3.3987446	timas	-0.53143394
-3.494401	pri	-0.1476393
-4.3261876	spico	-0.061940666
-4.4860597	gaĉo	-0.061940666
-4.2423353	vareta	-0.10010457
-4.4860597	rosteta	-0.061940666
-4.4860597	faruno	-0.061940666
-4.4860597	guereta	-0.061940666
-3.7892172	agfo	-0.20336005
-4.2423353	brago	-0.06194064
-4.4860597	leketaj	-0.061940666
-4.2423353	aspigton	-0.06194064
-4.4860597	feran	-0.061940666
-3.7240367	fortoj	-0.120522544
-4.4860597	ilfines	-0.061940666
-4.4860597	malprafaj	-0.061940666
-4.4860597	gilonio	-0.061940666
-3.9591823	provundi	-0.061940666
-3.8659375	pinses	-0.16097508
-4.2423353	mizipogo	-0.061940666
-3.9591823	gampoj	-0.06194064
-3.5723324	apartines	-0.5640235
-4.0780797	difirsaj	-0.061940666
-4.3261876	vameleoj	-0.061940666
-3.7892172	iglizeo	-0.19779672
-4.3261876	adamo	-0.061940666
-4.4860597	rudzensge	-0.061940666
-3.531621	rekardes	-0.22137049
-3.0214725	kranda	-0.11428245
-4.3261876	entiriso	-0.061940666
-3.1965117	eom	-0.17380826
-4.2423353	admero	-0.06194064
-3.9591823	guŝas	-0.061940666
-3.531621	progsemi	-0.31072092
-4.2423353	tajlando	-0.28947777
-4.3261876	noceo	-0.06194064
-4.0780797	utela	-0.10010457
-4.4860597	projigcea	-0.061940666
-4.4860597	kiomitreo	-0.061940666
-4.4860597	kompligsa	-0.061940666
-4.4860597	analetego	-0.061940666
-4.2423353	hafe	-0.061940666
-4.4860597	dik	-0.061940666
-4.3261876	logojn	-0.061940666
-4.2423353	semelajn	-0.06194064
-3.9591823	antegfa	-0.061940666
-4.4860597	ikepto	-0.061940666
-4.2423353	ĵures	-0.06194064
-4.3261876	ĉergaŭata	-0.18825722
-3.6673744	arboj	-0.18517278
-4.4860597	ifetes	-0.061940666
-4.4860597	ditruon	-0.061940666
-4.4860597	gutimaj	-0.061940666
-4.4860597	maneiroj	-0.061940666
-4.4860597	sigvas	-0.061940666
-4.4860597	ordino	-0.06194064
-3.4283493	pofes	-0.06884561
-4.4860597	aleĝe	-0.061940666
-4.4860597	miteestoj	-0.061940666
-4.3261876	pastroj	-0.061940666
-4.3261876	alero	-0.18825722
-4.2423353	kiokraveo	-0.06194064
-4.3261876	glasegaj	-0.06194064
-4.2423353	aŭtoroj	-0.14194806
-4.3261876	dato	-0.061940666
-4.4860597	krafureta	-0.061940666
-3.7240367	turo	-0.17715144
-3.6172585	jarojn	-0.12388969
-3.8659375	sigritareo	-0.2764251
-4.3261876	londona	-0.14194806
-4.3261876	ispirantoglubo	-0.06194064
-4.4860597	alfinenti	-0.061940666
-4.4860597	fojturneĝo	-0.061940666
-3.6172585	haltes	-0.15093504
-4.4860597	normale	-0.061940666
-4.4860597	platbiga	-0.061940666
-4.4860597	anaso	-0.061940666
-4.4860597	vedila	-0.061940666
-4.4860597	prefatan	-0.061940666
-4.3261876	intriprinon	-0.061940666
-3.6172585	dig	-0.082340635
-4.4860597	istroj	-0.061940666
-4.4860597	rekestaraj	-0.061940666
-4.4860597	enstancoj	-0.061940666
-4.4860597	orkanezoj	-0.061940666
-4.4860597	utele	-0.061940666
-4.2423353	munecepo	-0.061940666
-4.4860597	agtualo	-0.061940666
-4.4860597	munecepa	-0.061940666
-3.6172585	muzio	-0.19642103
-3.7892172	nicisas	-0.08700707
-4.4860597	risponde	-0.061940666
-3.6673744	jaro	-0.17837147
-4.4860597	iligtoj	-0.061940666
-3.9591823	urba	-0.061940666
-4.2423353	gonseleo	-0.14194806
-4.3261876	velepo	-0.061940666
-4.4860597	milangtono	-0.061940666
-3.275063	eĝes	-0.11311337
-4.3261876	ĉifa	-0.061940666
-4.0780797	istro	-0.120522544
-4.4860597	lutiranesmo	-0.061940666
-4.4860597	martino	-0.061940666
-4.4860597	lutiro	-0.061940666
-3.7240367	juleo	-0.20336005
-4.3261876	ŝutes	-0.061940666
-4.4860597	pirlojn	-0.061940666
-3.2540536	mean	-0.10629316
-4.4860597	anemon	-0.061940666
-4.4860597	samtaki	-0.061940666
-4.4860597	malgofro	-0.061940666
-4.4860597	tomboŝtono	-0.061940666
-4.0780797	glara	-0.061940666
-4.0780797	zaminhov	-0.061940666
-4.4860597	giis	-0.061940666
-4.2423353	tombo	-0.09444295
-3.9591823	apudi	-0.10815695
-4.4860597	karagtirezeta	-0.061940666
-4.4860597	sekneva	-0.061940666
-4.0780797	gfanto	-0.120522544
-4.3261876	penoj	-0.18825722
-4.0780797	midetirania	-0.061940666
-4.4860597	mageso	-0.061940666
-4.2423353	minceeta	-0.06194064
-3.7240367	hunkara	-0.07079881
-4.4860597	himno	-0.061940666
-4.4860597	malĝintela	-0.061940666
-3.4283493	geal	-0.17149746
-4.4860597	forgure	-0.061940666
-4.4860597	multas	-0.061940666
-4.4860597	aparte	-0.061940666
-4.3261876	kirmanlenkfaj	-0.061940666
-3.320401	landoj	-0.18633021
-4.4860597	miziŭropo	-0.061940666
-4.4860597	odeno	-0.061940666
-3.320401	multajn	-0.06194064
-4.2423353	envanojn	-0.14194806
-3.6172585	patreno	-0.12563239
-3.7892172	oni	-0.061940666
-4.3261876	dires	-0.061940666
-4.2423353	firo	-0.061940666
-4.4860597	fingas	-0.061940666
-4.4860597	lama	-0.061940666
-4.4860597	minsoko	-0.061940666
-4.3261876	gurijo	-0.061940666
-4.4860597	parezobristparizo	-0.061940666
-4.4860597	risaneĝo	-0.061940666
-3.7892172	vorti	-0.061940666
-4.4860597	atageta	-0.061940666
-4.4860597	zorkoj	-0.061940666
-4.4860597	megrosovto	-0.061940666
-4.4860597	surpreza	-0.061940666
-4.3261876	sekno	-0.18825722
-3.7892172	lebira	-0.061940666
-4.4860597	mastrumsistimo	-0.061940666
-4.3261876	matureĝas	-0.18825722
-4.4860597	dangas	-0.06194064
-3.7240367	eres	-0.2002972
-4.2423353	urbon	-0.120522544
-4.3261876	iliminta	-0.061940666
-3.0723617	parto	-0.33442062
-4.3261876	gajiro	-0.061940666
-4.3261876	ditala	-0.061940666
-3.9591823	plina	-0.06194064
-3.7240367	prokramo	-0.0902446
-4.4860597	riĝesoro	-0.061940666
-3.7240367	foles	-0.061940666
-3.3710299	vare	-0.09569471
-4.0780797	velmon	-0.120522544
-3.344978	geun	-0.20915645
-4.2423353	mimoras	-0.14194806
-4.4860597	rispigulas	-0.061940666
-4.2423353	kraficon	-0.06194064
-4.0780797	idugado	-0.10815695
-4.4860597	eni	-0.061940666
-4.4860597	mormona	-0.061940666
-4.3261876	solica	-0.06194064
-3.3710299	mortes	-0.15613961
-4.4860597	turnio	-0.061940666
-3.531621	usono	-0.27799368
-4.4860597	genijo	-0.061940666
-4.4860597	sangt	-0.061940666
-4.4860597	pitirburko	-0.061940666
-2.854175	ĝes	-0.2445103
-3.2971406	istis	-0.06194064
-4.4860597	niumann	-0.061940666
-4.3261876	virinc	-0.061940666
-4.0780797	difines	-0.120522544
-4.4860597	judakirmana	-0.061940666
-3.5723324	vameleo	-0.21406634
-4.4860597	ilgriskes	-0.061940666
-4.3261876	digoj	-0.061940666
-4.2423353	laborijoj	-0.06194064
-4.2423353	sangtijo	-0.09444295
-4.2423353	gfadrata	-0.06194064
-4.2423353	mallarĝa	-0.06194064
-4.3261876	nafo	-0.09444295
-4.0780797	fameleo	-0.061940666
-4.4860597	darmstadt	-0.061940666
-4.4860597	juko	-0.061940666
-4.4860597	virmo	-0.061940666
-3.7240367	partoprines	-0.18517278
-4.4860597	entirnan	-0.061940666
-4.0780797	meleton	-0.061940666
-4.4860597	lebireo	-0.061940666
-4.4860597	eneceatentoj	-0.061940666
-4.4860597	astronomea	-0.061940666
-4.4860597	votomitreo	-0.061940666
-4.4860597	arkinteno	-0.061940666
-3.6172585	paroles	-0.1131465
-4.4860597	sinĝini	-0.061940666
-4.0780797	plizuro	-0.120522544
-4.3261876	inlandi	-0.061940666
-3.4283493	gonata	-0.27954194
-3.5723324	giil	-0.061940666
-4.2423353	humuro	-0.14194806
-4.4860597	anikdotoj	-0.061940666
-3.8659375	lebro	-0.104864925
-3.7892172	geujn	-0.09444295
-3.5723324	geom	-0.22638427
-3.9591823	aleĝes	-0.51132655
-4.0780797	amegumu	-0.061940666
-4.3261876	risto	-0.061940666
-4.3261876	subaj	-0.18825722
-3.5723324	partoj	-0.21788186
-4.0780797	vlafaj	-0.1598836
-3.7240367	jaron	-0.08700707
-3.6172585	rifines	-0.17120703
-4.4860597	kraz	-0.061940666
-4.0780797	asoceo	-0.11915951
-4.4860597	ildonas	-0.061940666
-3.6172585	lebrojn	-0.2315397
-4.4860597	konstruado	-0.061940666
-4.3261876	rajtoj	-0.061940666
-3.5723324	blanga	-0.06194064
-4.4860597	soledaĵo	-0.061940666
-3.494401	kun	-0.061940666
-4.4860597	malakrabla	-0.061940666
-4.4860597	odoro	-0.061940666
-4.2423353	bile	-0.14194806
-4.4860597	malbileka	-0.061940666
-4.4860597	tugo	-0.061940666
-3.6673744	gapo	-0.2503334
-4.4860597	gampara	-0.061940666
-3.5723324	seknevas	-0.07848982
-4.4860597	pustotirovortegaĵo	-0.061940666
-4.4860597	venfeni	-0.061940666
-4.4860597	montre	-0.061940666
-4.3261876	rispigto	-0.061940666
-4.4860597	multvacitaj	-0.061940666
-4.3261876	tradeceoj	-0.061940666
-4.3261876	gamparano	-0.061940666
-4.2423353	bluan	-0.061940666
-4.4860597	getilon	-0.061940666
-3.6172585	poste	-0.18573196
-4.4860597	gongiris	-0.061940666
-4.4860597	ankirs	-0.061940666
-4.4860597	najbarajn	-0.061940666
-4.4860597	rikeonojn	-0.061940666
-4.4860597	hizetes	-0.061940666
-4.4860597	venado	-0.061940666
-4.0780797	dimando	-0.061940666
-4.3261876	defines	-0.061940666
-3.7892172	ŝean	-0.061940666
-4.4860597	penson	-0.061940666
-3.8659375	vrui	-0.061940666
-4.2423353	isperanto	-0.28947777
-3.8659375	openeas	-0.09444295
-4.4860597	ŝircmogas	-0.061940666
-3.6172585	istu	-0.061940666
-4.4860597	neneo	-0.061940666
-4.0780797	absoluti	-0.061940666
-4.2423353	trofos	-0.06194064
-3.7240367	alean	-0.061940666
-4.4860597	spicon	-0.061940666
-3.5723324	mimbroj	-0.15135738
-4.2423353	folus	-0.120522544
-3.8659375	scee	-0.0902446
-4.4860597	iom	-0.061940666
-4.3261876	gunfinoj	-0.061940666
-3.531621	homo	-0.108641066
-4.4860597	pigenta	-0.061940666
-4.4860597	sinentinci	-0.061940666
-3.8659375	vaceli	-0.061940666
-4.4860597	pardonas	-0.061940666
-3.0723617	nineam	-0.1292003
-3.5723324	suveĉi	-0.07680625
-4.4860597	fareaso	-0.061940666
-4.4860597	cirtekes	-0.061940666
-4.4860597	ŝtoneĝes	-0.061940666
-4.4860597	klaceeĝes	-0.061940666
-4.2423353	prokramoj	-0.06194064
-4.4860597	gruta	-0.061940666
-4.3261876	roga	-0.06194064
-3.3710299	staras	-0.10849857
-4.3261876	lumturo	-0.061940666
-4.4860597	ovtaj	-0.061940666
-4.0780797	enundoj	-0.120522544
-4.3261876	riala	-0.061940666
-4.4860597	feandmondo	-0.061940666
-4.4860597	malivega	-0.061940666
-4.4860597	roto	-0.061940666
-3.320401	ristes	-0.13096674
-4.4860597	areo	-0.061940666
-4.0780797	gazo	-0.120522544
-4.2423353	sigsa	-0.28947777
-4.4860597	duvormesmo	-0.061940666
-4.2423353	ringontes	-0.06194064
-4.2423353	multnombrajn	-0.14194806
-4.4860597	vamajn	-0.061940666
-4.4860597	muzegestojn	-0.061940666
-4.4860597	rapidi	-0.061940666
-4.0780797	proviseon	-0.1598836
-4.4860597	produgtesto	-0.061940666
-4.4860597	aranĝisto	-0.061940666
-3.8659375	romeanoj	-0.11861546
-3.9591823	tee	-0.061940666
-4.3261876	vortegaĵon	-0.061940666
-3.3987446	loĝas	-0.3500479
-4.2423353	nofjorgo	-0.22049086
-4.2423353	gonkruas	-0.28947777
-4.2423353	ĝinirala	-0.061940666
-4.2423353	enstruado	-0.06194064
-4.4860597	iama	-0.061940666
-4.3261876	fecderigtoro	-0.18825722
-4.3261876	ildonijo	-0.061940666
-4.3261876	fortaroj	-0.061940666
-3.1002326	mim	-0.20481361
-3.8659375	firges	-0.08700707
-4.4860597	fortarojn	-0.061940666
-4.4860597	latfarusan	-0.061940666
-4.4860597	rusalatfan	-0.061940666
-4.2423353	normoj	-0.06194064
-4.3261876	devenetaj	-0.061940666
-4.4860597	japane	-0.061940666
-4.3261876	entirnacei	-0.061940666
-3.7240367	ispirantestoj	-0.13402027
-4.4860597	resgi	-0.061940666
-4.4860597	ringonteĝe	-0.061940666
-4.4860597	ispirantestaj	-0.061940666
-4.3261876	ringonteĝoj	-0.061940666
-4.4860597	aŭtonomeo	-0.061940666
-4.4860597	cekanoj	-0.061940666
-4.3261876	mekra	-0.061940666
-4.4860597	poŝto	-0.061940666
-4.2423353	sirfas	-0.06194064
-4.3261876	hemno	-0.061940666
-4.3261876	rusea	-0.061940666
-4.2423353	vidiraceo	-0.14194806
-3.6172585	ankaŭ	-0.096486785
-4.3261876	multe	-0.061940666
-4.4860597	velmes	-0.061940666
-3.178909	geam	-0.16447268
-4.4860597	papagoj	-0.061940666
-4.4860597	pritirvlukas	-0.061940666
-4.4860597	gapteta	-0.061940666
-4.4860597	ilekas	-0.061940666
-4.4860597	greadon	-0.061940666
-4.3261876	malkraŭ	-0.061940666
-3.4601207	labores	-0.18594183
-3.9591823	itaĝo	-0.09444295
-4.3261876	butegoj	-0.061940666
-4.3261876	fistoj	-0.06194064
-4.3261876	ŝuoj	-0.061940666
-4.3261876	gavijoj	-0.061940666
-4.0780797	kotega	-0.061940666
-4.3261876	neĉo	-0.061940666
-4.2423353	sintes	-0.120522544
-4.3261876	istenta	-0.061940666
-4.3261876	malsana	-0.061940666
-4.4860597	malsato	-0.061940666
-4.4860597	soevo	-0.061940666
-4.4860597	iltrofes	-0.061940666
-4.0780797	sudo	-0.14194806
-3.6172585	hestorea	-0.061940666
-4.2423353	urboparto	-0.06194064
-4.3261876	domaroj	-0.061940666
-4.4860597	plemalple	-0.061940666
-4.4860597	gungrisges	-0.061940666
-4.2423353	alti	-0.06194064
-4.3261876	progsema	-0.06194064
-4.2423353	ibinaĵo	-0.120522544
-4.2423353	transero	-0.14194806
-3.6172585	montaro	-0.11915951
-4.4860597	rajdantaj	-0.061940666
-4.4860597	riglameloj	-0.061940666
-4.4860597	lagone	-0.061940666
-4.4860597	respondas	-0.061940666
-4.4860597	filozovo	-0.061940666
-4.4860597	pridegestoj	-0.061940666
-4.4860597	meseestoj	-0.061940666
-4.4860597	gfistestoj	-0.061940666
-4.4860597	ifankilega	-0.061940666
-4.4860597	gones	-0.061940666
-3.4283493	lean	-0.12691928
-3.9591823	nomon	-0.13616808
-4.3261876	gurso	-0.061940666
-4.4860597	dejon	-0.061940666
-4.3261876	kroto	-0.061940666
-4.0780797	krafajn	-0.061940666
-4.4860597	argiolokeajn	-0.061940666
-3.9591823	refiroj	-0.06194064
-3.9591823	recifas	-0.10010457
-4.4860597	aldonan	-0.061940666
-4.2423353	agfon	-0.06194064
-4.4860597	rojoj	-0.061940666
-4.4860597	vinantaj	-0.061940666
-4.4860597	apudaj	-0.061940666
-3.9591823	montoj	-0.120522544
-3.8659375	sudi	-0.10010457
-3.8659375	lemas	-0.06194064
-4.3261876	igstirdestregta	-0.18825722
-4.4860597	stutkarto	-0.061940666
-4.4860597	fidiracea	-0.061940666
-4.4860597	imireta	-0.061940666
-4.2423353	envluo	-0.06194064
-4.3261876	pintrado	-0.061940666
-4.3261876	gomponaĵoj	-0.18825722
-4.4860597	inbeldaj	-0.061940666
-3.9591823	tigstoj	-0.061940666
-3.9591823	glari	-0.061940666
-4.3261876	fedeĝas	-0.061940666
-4.4860597	vakti	-0.061940666
-4.2423353	ispirantujo	-0.14194806
-4.2423353	nofaĵoj	-0.06194064
-3.7892172	atenkes	-0.22792187
-4.2423353	onederi	-0.06194064
-4.2423353	ivega	-0.14194806
-3.9591823	mitodo	-0.10010457
-4.4860597	ereso	-0.061940666
-4.2423353	tepo	-0.06194064
-4.3261876	firso	-0.061940666
-4.3261876	firgeta	-0.061940666
-4.4860597	gorano	-0.061940666
-4.4860597	rifinis	-0.061940666
-4.4860597	etaleon	-0.061940666
-3.7240367	sugcises	-0.17558785
-4.4860597	ighafe	-0.061940666
-4.2423353	unuajn	-0.06194064
-4.3261876	gontagtojn	-0.061940666
-3.6673744	riĝa	-0.10010457
-4.0780797	kiokravea	-0.061940666
-4.4860597	varnizela	-0.061940666
-4.3261876	binzoato	-0.18825722
-3.6172585	riagceas	-0.61843085
-3.9591823	vortaj	-0.0902446
-4.4860597	ogsedekakentoj	-0.061940666
-4.4860597	bazoj	-0.061940666
-4.4860597	pricepe	-0.061940666
-4.3261876	endego	-0.061940666
-4.4860597	popularico	-0.061940666
-3.2540536	team	-0.094417915
-4.4860597	folumo	-0.061940666
-3.9591823	ere	-0.06194064
-4.3261876	arbaron	-0.061940666
-4.3261876	alporte	-0.061940666
-4.3261876	nutraĵon	-0.18825722
-4.2423353	istables	-0.06194064
-4.3261876	abatijon	-0.061940666
-4.3261876	nasgeĝurbo	-0.10815695
-4.0780797	oveceali	-0.061940666
-4.4860597	lesteta	-0.061940666
-4.4860597	indanĝireketa	-0.061940666
-4.4860597	simenareon	-0.061940666
-4.4860597	golikeon	-0.061940666
-4.4860597	monaĥijojn	-0.061940666
-4.4860597	hospetalon	-0.061940666
-4.4860597	menas	-0.061940666
-4.4860597	las	-0.061940666
-4.2423353	orekeno	-0.120522544
-4.3261876	likindoj	-0.18825722
-4.3261876	malhilaj	-0.06194064
-4.4860597	bindoj	-0.061940666
-4.2423353	fosto	-0.120522544
-4.4860597	sintos	-0.061940666
-4.4860597	vagte	-0.061940666
-4.4860597	apartine	-0.061940666
-4.2423353	kinro	-0.061940666
-4.4860597	segnevas	-0.061940666
-4.4860597	berdoensulo	-0.061940666
-4.2423353	gfendig	-0.14194806
-4.0780797	mel	-0.10815695
-4.4860597	vrangojn	-0.061940666
-4.4860597	konstruaĵo	-0.061940666
-4.3261876	rigonstrueta	-0.061940666
-4.4860597	alfogu	-0.061940666
-4.3261876	unuan	-0.06194064
-4.3261876	atistanton	-0.061940666
-4.4860597	suvloreti	-0.061940666
-4.4860597	reĝo	-0.061940666
-4.0780797	horoj	-0.14194806
-3.5723324	pases	-0.08060354
-4.4860597	ninei	-0.061940666
-4.4860597	deko	-0.061940666
-3.9591823	fedibla	-0.14536811
-3.344978	gfar	-0.10010453
-4.3261876	patrenon	-0.18825722
-3.8659375	malapires	-0.10010457
-4.2423353	pordo	-0.08700707
-4.2423353	ispiro	-0.06194064
-4.4860597	ritrofe	-0.061940666
-4.4860597	sgunon	-0.061940666
-3.8659375	bigo	-0.1716832
-3.4601207	nekra	-0.14268143
-3.9591823	subi	-0.1598836
-4.4860597	lakobordo	-0.061940666
-3.8659375	igzestes	-0.06194064
-4.2423353	sitlijoj	-0.06194064
-4.3261876	bronzipoko	-0.061940666
-4.0780797	lasta	-0.061940666
-3.6172585	gonstruaĵo	-0.09889056
-4.0780797	modilo	-0.120522544
-4.2423353	mizipoga	-0.09444295
-3.7892172	iŭropo	-0.23093028
-3.9591823	sedes	-0.18381225
-4.2423353	mallaŭti	-0.06194064
-4.4860597	parolantaj	-0.061940666
-4.3261876	plindes	-0.061940666
-4.3261876	plufa	-0.061940666
-3.8659375	sizono	-0.11360937
-3.7892172	daŭras	-0.0902446
-4.2423353	ogtobro	-0.120522544
-3.9591823	aprelo	-0.14536811
-4.4860597	vasado	-0.06194064
-4.4860597	malsemitrea	-0.06194064
-4.0780797	digstri	-0.061940666
-3.9591823	eomiti	-0.06194064
-4.3261876	malantaŭi	-0.061940666
-4.3261876	alteĝas	-0.10815695
-4.0780797	sirfes	-0.120522544
-4.4860597	bretabura	-0.061940666
-4.3261876	tiorei	-0.06194064
-4.0780797	digstra	-0.120522544
-4.0780797	bordo	-0.120522544
-4.2423353	gonko	-0.120522544
-4.4860597	marhafino	-0.061940666
-3.320401	ĉeu	-0.07732804
-4.3261876	rajton	-0.10815695
-4.4860597	lebireco	-0.061940666
-4.3261876	pinso	-0.061940666
-4.4860597	gonsceenco	-0.061940666
-4.3261876	rilekio	-0.18825722
-4.3261876	kasto	-0.061940666
-3.9591823	ĉambro	-0.16763665
-4.4860597	ŝovores	-0.061940666
-4.2423353	zorkes	-0.28947777
-4.4860597	ridagta	-0.061940666
-4.4860597	sekritareo	-0.061940666
-3.9591823	granda	-0.061940666
-3.4283493	nineon	-0.29889536
-3.6172585	grom	-0.108641066
-4.2423353	sablo	-0.14194806
-4.0780797	diputeto	-0.120522544
-4.2423353	akes	-0.06194064
-3.9591823	relati	-0.51132655
-4.4860597	junularo	-0.061940666
-4.4860597	deplomo	-0.061940666
-4.4860597	finizuilo	-0.061940666
-3.7892172	londono	-0.18573196
-4.2423353	postinojn	-0.28947777
-4.2423353	defersaj	-0.061940666
-4.3261876	muzegaj	-0.061940666
-4.2423353	soceitoj	-0.14194806
-4.2423353	gealo	-0.09444295
-4.4860597	vrinizeĝo	-0.061940666
-4.3261876	fiteha	-0.06194064
-4.3261876	stinokraveo	-0.061940666
-4.2423353	ŝatogupo	-0.06194064
-4.4860597	isiojn	-0.061940666
-4.2423353	hestorio	-0.061940666
-4.4860597	invormoj	-0.061940666
-4.2423353	maltrangfela	-0.06194064
-3.8659375	takon	-0.10010457
-4.2423353	atago	-0.10815695
-4.4860597	riogazos	-0.061940666
-4.4860597	nisto	-0.061940666
-3.8659375	gonstrueta	-0.14536811
-3.9591823	arbo	-0.26299348
-3.9591823	plinumas	-0.10815695
-3.494401	bonan	-0.09444295
-4.3261876	akon	-0.061940666
-3.6172585	varas	-0.16047862
-4.4860597	desfasteko	-0.061940666
-3.6172585	hilpes	-0.16000815
-3.9591823	parincoj	-0.18381225
-4.3261876	ha	-0.061940666
-3.7240367	ĝojo	-0.20336005
-3.275063	rispondes	-0.17395663
-4.3261876	virfora	-0.061940666
-4.3261876	okuloj	-0.18825722
-4.4860597	fares	-0.061940666
-3.7892172	vlukhafino	-0.09444295
-4.4860597	obstenes	-0.061940666
-4.4860597	porta	-0.061940666
-4.4860597	nikra	-0.061940666
-3.9591823	veneĝes	-0.061940666
-4.4860597	igdormes	-0.061940666
-4.4860597	fikeĝes	-0.061940666
-4.4860597	takeĝo	-0.061940666
-4.4860597	rizonado	-0.061940666
-4.4860597	velozovado	-0.061940666
-4.3261876	panon	-0.061940666
-4.4860597	veleĉi	-0.061940666
-4.4860597	indeanoj	-0.061940666
-3.7892172	ario	-0.17395663
-4.4860597	vadinoj	-0.061940666
-4.3261876	ezoletaj	-0.061940666
-4.4860597	gortumo	-0.061940666
-4.3261876	habsburkoj	-0.061940666
-4.4860597	tetolon	-0.061940666
-4.3261876	ĉambilano	-0.061940666
-3.5723324	firŝajni	-0.07680625
-4.3261876	reĉaj	-0.061940666
-4.3261876	urbanoj	-0.18825722
-4.2423353	pirsona	-0.120522544
-4.3261876	abrupti	-0.061940666
-3.7240367	gfangam	-0.079139106
-4.2423353	grides	-0.06194064
-4.3261876	priĝejo	-0.061940666
-4.2423353	monaĥijo	-0.10010457
-4.3261876	malrapeda	-0.061940666
-4.4860597	suprinero	-0.061940666
-3.6673744	krandaj	-0.061940666
-4.4860597	honoroj	-0.061940666
-4.4860597	likenti	-0.061940666
-3.6673744	fezaĝo	-0.07788779
-4.4860597	recifotan	-0.061940666
-4.4860597	nofaĵon	-0.061940666
-3.7892172	lionardo	-0.061940666
-3.494401	dimandes	-0.23593484
-4.3261876	inhafo	-0.061940666
-4.4860597	metano	-0.061940666
-4.2423353	dipindi	-0.28947777
-4.4860597	provundico	-0.061940666
-4.0780797	enstrue	-0.061940666
-3.6673744	ajn	-0.082340635
-4.4860597	atrebuata	-0.061940666
-4.4860597	farsofea	-0.061940666
-4.4860597	duglando	-0.061940666
-4.4860597	manplato	-0.061940666
-4.4860597	rampes	-0.061940666
-4.4860597	gfarpirsona	-0.061940666
-2.9548266	ĉar	-0.25815788
-4.4860597	vrateniton	-0.061940666
-3.2340138	lonki	-0.11427315
-4.3261876	daŭros	-0.061940666
-4.4860597	rinofego	-0.061940666
-4.4860597	devigteta	-0.061940666
-4.4860597	fevmideo	-0.061940666
-4.4860597	velmis	-0.061940666
-4.3261876	ginjo	-0.061940666
-4.3261876	sgotlando	-0.061940666
-4.4860597	eslando	-0.061940666
-4.0780797	ganado	-0.22049086
-4.4860597	inbateĝe	-0.061940666
-3.8659375	sceinca	-0.06194064
-3.4601207	laboro	-0.1627336
-4.0780797	dideĉeta	-0.4144165
-4.4860597	gompara	-0.061940666
-4.4860597	patolokeo	-0.061940666
-4.4860597	niotropesa	-0.061940666
-4.4860597	ensigtofora	-0.061940666
-4.4860597	gutimi	-0.061940666
-3.7240367	manĝas	-0.10815695
-4.3261876	krunda	-0.061940666
-3.6673744	nefilo	-0.21878916
-4.4860597	subgrisgaĵaro	-0.061940666
-4.4860597	ditirmene	-0.061940666
-4.4860597	vormojn	-0.061940666
-3.494401	malkrandaj	-0.10815692
-4.0780797	planidoj	-0.061940666
-3.1148686	geuj	-0.061940666
-4.3261876	sigfaj	-0.06194064
-3.8659375	jarcintoj	-0.20947833
-4.3261876	plekrandeĝes	-0.061940666
-4.3261876	aldonaj	-0.061940666
-3.6673744	subeti	-0.07586207
-3.7240367	fero	-0.082340635
-4.4860597	laŭtekas	-0.061940666
-4.4860597	foĉon	-0.061940666
-4.4860597	floras	-0.061940666
-3.8659375	ŝajnas	-0.08443431
-4.4860597	igsgludes	-0.061940666
-4.4860597	kulton	-0.061940666
-4.0780797	monumintoj	-0.10815695
-4.0780797	beldojn	-0.061940666
-4.3261876	deaĵoj	-0.061940666
-3.8659375	ludas	-0.061940666
-4.3261876	mominti	-0.061940666
-4.4860597	ogcidinta	-0.061940666
-4.4860597	defedaĵo	-0.061940666
-3.8659375	leko	-0.16097508
-3.6673744	malovti	-0.061940666
-3.7892172	plufas	-0.10815695
-3.8659375	apinaŭ	-0.061940666
-4.4860597	mizuribla	-0.061940666
-4.4860597	mitanti	-0.061940666
-3.7892172	manon	-0.12539467
-4.4860597	bragon	-0.061940666
-3.9591823	provisoro	-0.15453969
-4.4860597	meldico	-0.061940666
-4.3261876	aguzeta	-0.06194064
-4.4860597	pirvedo	-0.061940666
-4.4860597	igzeguteta	-0.061940666
-4.4860597	tiodorego	-0.061940666
-4.4860597	submarŝepo	-0.061940666
-4.2423353	ifolues	-0.14194806
-4.4860597	mallonkeketa	-0.061940666
-4.3261876	submara	-0.061940666
-3.7892172	ŝepo	-0.09444295
-4.3261876	boato	-0.061940666
-3.9591823	nomas	-0.061940666
-4.4860597	mimsinbranĉeĝo	-0.061940666
-4.4860597	prinu	-0.061940666
-3.9591823	antaŭin	-0.10010457
-4.4860597	gamarado	-0.061940666
-4.4860597	sigfu	-0.061940666
-4.2423353	postiulo	-0.06194064
-3.6172585	enstetuto	-0.19762355
-3.7240367	gatolega	-0.061940666
-4.0780797	studado	-0.22049086
-3.9591823	cirbo	-0.10010457
-4.2423353	malhilpas	-0.120522544
-3.8659375	gomprine	-0.10010457
-4.4860597	rialon	-0.061940666
-4.4860597	lonke	-0.061940666
-4.3261876	hafinurbo	-0.18825722
-4.0780797	morkaŭ	-0.061940666
-4.3261876	travos	-0.061940666
-4.3261876	kracea	-0.061940666
-4.3261876	amenda	-0.061940666
-4.3261876	junuleno	-0.061940666
-3.8659375	riĝo	-0.15453969
-4.4860597	gugoj	-0.061940666
-4.4860597	kremitatara	-0.061940666
-4.3261876	altibinaĵo	-0.061940666
-3.4601207	finas	-0.13161737
-3.6172585	refiro	-0.10257345
-3.6172585	teaj	-0.061940666
-4.4860597	gfadratoj	-0.061940666
-4.3261876	letiroj	-0.061940666
-4.4860597	makeaj	-0.061940666
-4.2423353	nu	-0.061940666
-4.2423353	paĉjo	-0.06194064
-4.3261876	sindubi	-0.06194064
-4.0780797	hundo	-0.120522544
-4.4860597	ii	-0.061940666
-4.4860597	dormenta	-0.061940666
-4.4860597	figeĝente	-0.061940666
-4.3261876	sirĉes	-0.061940666
-3.9591823	teamaneiri	-0.061940666
-4.4860597	ingondugeta	-0.061940666
-3.9591823	artan	-0.06194064
-4.4860597	mergaton	-0.061940666
-4.4860597	aristeta	-0.061940666
-4.4860597	mallebireketa	-0.061940666
-3.9591823	paŭlo	-0.10010457
-4.0780797	oreinti	-0.16097508
-4.4860597	burkinlando	-0.061940666
-3.9591823	hunkareo	-0.0902446
-3.7240367	aŭstreo	-0.26299348
-4.4860597	stereo	-0.061940666
-4.3261876	rajdado	-0.18825722
-4.0780797	ipesgopo	-0.061940666
-4.4860597	gorento	-0.061940666
-4.4860597	iglizeaj	-0.061940666
-4.3261876	aŭtoretatoj	-0.061940666
-4.4860597	cetetaj	-0.061940666
-4.4860597	plurali	-0.061940666
-4.4860597	daun	-0.061940666
-4.3261876	nome	-0.061940666
-4.4860597	jufilesto	-0.06194064
-4.3261876	manplatoj	-0.061940666
-4.4860597	igvrotes	-0.061940666
-4.0780797	harojn	-0.120522544
-4.4860597	amanto	-0.061940666
-4.4860597	nigonatulo	-0.061940666
-4.2423353	mortekes	-0.06194064
-4.4860597	sidelon	-0.061940666
-3.7892172	ŝi	-0.07788779
-4.0780797	agtefas	-0.061940666
-4.3261876	igonomei	-0.18825722
-4.4860597	sembola	-0.06194064
-4.4860597	kapetalo	-0.061940666
-4.4860597	endegas	-0.061940666
-4.0780797	ĉeun	-0.061940666
-4.2423353	vormon	-0.14194806
-4.3261876	gapetalo	-0.061940666
-4.4860597	rigoneta	-0.061940666
-3.9591823	soceo	-0.10815695
-3.6172585	velo	-0.103746206
-3.7892172	nometa	-0.2002972
-4.4860597	anatolej	-0.061940666
-4.2423353	honori	-0.14194806
-3.494401	dinofi	-0.07586207
-4.4860597	ĥoron	-0.061940666
-3.6673744	iggrees	-0.2002972
-4.4860597	tignolokea	-0.061940666
-4.4860597	pofumo	-0.061940666
-4.0780797	sofituneo	-0.09444295
-4.4860597	divees	-0.061940666
-4.4860597	tignegan	-0.061940666
-4.4860597	supiricon	-0.061940666
-4.2423353	ogcedinto	-0.18381225
-4.3261876	akas	-0.061940666
-4.4860597	gorisponda	-0.061940666
-4.3261876	vono	-0.14194806
-4.0780797	muro	-0.061940666
-4.3261876	pindas	-0.061940666
-4.4860597	golobindo	-0.061940666
-4.4860597	lida	-0.061940666
-4.4860597	sago	-0.061940666
-4.4860597	klafo	-0.061940666
-4.4860597	milaso	-0.061940666
-4.4860597	goregtes	-0.061940666
-4.4860597	dorma	-0.061940666
-3.8659375	malantaŭ	-0.16097508
-4.4860597	pintman	-0.061940666
-4.4860597	pensas	-0.061940666
-4.4860597	hepnota	-0.061940666
-4.2423353	dormo	-0.06194064
-4.3261876	reditas	-0.061940666
-4.4860597	bagatilo	-0.061940666
-4.2423353	sirfe	-0.06194064
-4.4860597	celo	-0.061940666
-3.7892172	voleoj	-0.08700707
-4.4860597	teko	-0.06194064
-4.4860597	ildonaĵo	-0.061940666
-4.3261876	treo	-0.061940666
-4.0780797	fasti	-0.061940666
-4.4860597	grafico	-0.061940666
-4.2423353	lako	-0.061940666
-4.3261876	malgrisges	-0.061940666
-4.4860597	bizancanoj	-0.061940666
-3.7892172	pirdes	-0.18507762
-4.4860597	gontrolon	-0.061940666
-4.4860597	gontraŭi	-0.061940666
-4.4860597	ditrueĝes	-0.061940666
-4.4860597	lebrobritoj	-0.061940666
-4.4860597	altas	-0.061940666
-4.3261876	malnofaj	-0.061940666
-3.9591823	lebroj	-0.10010457
-4.4860597	igaŭdes	-0.061940666
-3.6172585	gfazaŭ	-0.082340635
-4.4860597	rongan	-0.061940666
-4.4860597	nihaltekiblan	-0.061940666
-4.4860597	tusadon	-0.061940666
-4.4860597	lastatimpi	-0.061940666
-3.7240367	turesmo	-0.20086507
-3.7892172	sirfoj	-0.061940666
-4.3261876	ŝosio	-0.061940666
-4.4860597	gontraŭturgaj	-0.06194064
-3.9591823	bataloj	-0.13402027
-3.6673744	felaĝo	-0.086887285
-4.3261876	sinhomiĝes	-0.061940666
-4.4860597	slofakoj	-0.061940666
-3.8659375	rivondes	-0.28947777
-4.0780797	sestimoj	-0.22049086
-4.3261876	mofiblaj	-0.061940666
-4.2423353	tepoj	-0.14194806
-4.4860597	lemiketa	-0.061940666
-3.6172585	alta	-0.073041886
-4.4860597	enstrua	-0.061940666
-4.3261876	ranko	-0.061940666
-3.8659375	aro	-0.16097508
-4.4860597	malsupiraj	-0.061940666
-4.2423353	deoj	-0.14194806
-3.9591823	tiam	-0.10815695
-3.5723324	aviroj	-0.13704959
-4.4860597	nedicidetaj	-0.061940666
-4.4860597	likanto	-0.061940666
-4.4860597	defas	-0.061940666
-4.4860597	vorme	-0.061940666
-3.7240367	se	-0.16423635
-4.3261876	openeon	-0.061940666
-4.4860597	igsgluzefi	-0.061940666
-4.4860597	entirpritata	-0.061940666
-4.0780797	masgloj	-0.061940666
-4.3261876	vojvoji	-0.061940666
-4.2423353	partoprinas	-0.06194064
-3.8659375	rikado	-0.11360937
-4.2423353	ibla	-0.06194064
-4.4860597	riprines	-0.061940666
-4.4860597	pirdetan	-0.061940666
-4.4860597	sendipindicon	-0.061940666
-3.6673744	malvaceli	-0.079139106
-4.4860597	gonverme	-0.061940666
-3.4601207	eon	-0.09444295
-4.4860597	druedoj	-0.061940666
-4.3261876	sirĉas	-0.061940666
-4.4860597	iblojn	-0.061940666
-4.4860597	enfiste	-0.061940666
-4.4860597	ŝparmonon	-0.061940666
-4.4860597	iteki	-0.061940666
-4.4860597	agciptibla	-0.061940666
-3.8659375	maneiro	-0.26299348
-4.2423353	egzestas	-0.061940666
-4.4860597	endegoj	-0.061940666
-4.3261876	logaj	-0.061940666
-3.494401	logoj	-0.11915951
-3.2971406	pricepi	-0.16527918
-4.4860597	grito	-0.061940666
-4.4860597	hira	-0.061940666
-4.0780797	ziŭso	-0.061940666
-4.3261876	malagciptes	-0.061940666
-4.2423353	lin	-0.06194064
-4.3261876	agtefes	-0.06194064
-4.4860597	relekea	-0.061940666
-4.4860597	salutis	-0.061940666
-4.0780797	kaja	-0.061940666
-4.4860597	montro	-0.061940666
-4.4860597	sinartevega	-0.061940666
-3.5723324	plurajn	-0.061940666
-4.4860597	fecprezedanto	-0.061940666
-3.9591823	iŭropa	-0.061940666
-4.4860597	klubo	-0.061940666
-3.8659375	ensigtojn	-0.16097508
-4.4860597	grustulojn	-0.061940666
-4.4860597	tiel	-0.061940666
-3.8659375	nofaj	-0.06194064
-4.4860597	fakonoj	-0.061940666
-3.9591823	lebron	-0.10010457
-4.4860597	liki	-0.061940666
-3.494401	fefas	-0.12691928
-3.7240367	reĉa	-0.082340635
-4.4860597	tirino	-0.061940666
-4.4860597	rigfeeteĝu	-0.061940666
-4.4860597	peidbatanto	-0.061940666
-4.4860597	atinco	-0.061940666
-4.4860597	malsugcises	-0.061940666
-4.3261876	gealoj	-0.18825722
-4.2423353	masglo	-0.061940666
-4.4860597	brunan	-0.061940666
-4.4860597	plumaron	-0.061940666
-4.3261876	riprodugta	-0.18825722
-4.3261876	ŝanĝas	-0.061940666
-4.2423353	malhilkreza	-0.061940666
-4.4860597	ogazekes	-0.061940666
-4.3261876	damaĝojn	-0.18825722
-4.4860597	ĉivlogo	-0.061940666
-4.4860597	mindreseo	-0.061940666
-4.4860597	sigfa	-0.061940666
-4.3261876	abdeges	-0.061940666
-3.7240367	ogupeĝes	-0.21830417
-4.2423353	mortas	-0.06194064
-3.9591823	fedas	-0.061940666
-4.4860597	bazara	-0.061940666
-4.4860597	gapridugto	-0.061940666
-4.3261876	gonsintos	-0.061940666
-4.3261876	adeaŭ	-0.120522544
-3.9591823	nipri	-0.061940666
-3.7892172	rajtas	-0.061940666
-4.0780797	recife	-0.061940666
-3.8659375	primeon	-0.16097508
-4.4860597	muso	-0.06194064
-4.4860597	prefat	-0.061940666
-4.4860597	antaŭinekes	-0.061940666
-4.4860597	ispirantoorkanezon	-0.061940666
-3.7892172	igstir	-0.22792187
-4.3261876	unefirsala	-0.061940666
-4.4860597	ispirantoasoceo	-0.061940666
-4.4860597	nazotirebo	-0.061940666
-4.4860597	indeĝina	-0.061940666
-4.4860597	rekeono	-0.061940666
-4.0780797	profenco	-0.11861546
-4.4860597	bogasdiltoro	-0.061940666
-4.2423353	gostarego	-0.120522544
-3.8659375	troveĝas	-0.06194064
-4.2423353	ruĝaj	-0.061940666
-4.4860597	arkelaj	-0.061940666
-4.0780797	platoj	-0.120522544
-4.4860597	populari	-0.061940666
-4.0780797	felhilmo	-0.061940666
-4.4860597	gronprenco	-0.061940666
-4.3261876	adopteta	-0.061940666
-4.4860597	vonitegaj	-0.061940666
-4.4860597	semplekoj	-0.061940666
-4.4860597	nicisaj	-0.061940666
-3.531621	tiu	-0.061940666
-4.3261876	vungceo	-0.061940666
-3.9591823	brusto	-0.10010457
-4.4860597	aklo	-0.061940666
-4.4860597	ŝeldo	-0.061940666
-4.4860597	eraka	-0.061940666
-3.8659375	vlako	-0.14194806
-3.8659375	rolon	-0.18507762
-4.3261876	tilifedo	-0.18825722
-4.4860597	cirimoneon	-0.061940666
-3.8659375	loga	-0.06194064
-4.4860597	vorĝesto	-0.061940666
-4.4860597	deplomataj	-0.061940666
-4.4860597	istekis	-0.061940666
-4.4860597	sireon	-0.061940666
-4.4860597	budhesmaj	-0.061940666
-4.4860597	sgoloj	-0.061940666
-4.4860597	japanujo	-0.061940666
-4.4860597	zino	-0.061940666
-4.2423353	remarges	-0.061940666
-4.2423353	vloreso	-0.06194064
-4.3261876	malĝoja	-0.18825722
-4.4860597	plurjara	-0.061940666
-3.531621	prizedanto	-0.39658213
-4.3261876	feina	-0.061940666
-3.9591823	firseo	-0.14194806
-4.4860597	aspigtes	-0.061940666
-4.4860597	malsemela	-0.061940666
-4.3261876	antaŭaj	-0.061940666
-4.4860597	virseoj	-0.061940666
-4.4860597	lasti	-0.061940666
-4.4860597	inekes	-0.061940666
-4.4860597	plumon	-0.061940666
-4.4860597	engujon	-0.061940666
-4.3261876	sirfesto	-0.061940666
-4.3261876	progsemeĝes	-0.061940666
-4.3261876	unusola	-0.061940666
-4.3261876	sfilta	-0.18825722
-4.4860597	inerejo	-0.061940666
-4.4860597	ispirantistoj	-0.061940666
-4.2423353	poimoj	-0.06194064
-4.4860597	vundaminta	-0.061940666
-4.4860597	gristomateo	-0.061940666
-4.3261876	soldato	-0.18825722
-4.2423353	makea	-0.06194064
-4.4860597	remido	-0.061940666
-4.4860597	maljunulo	-0.061940666
-4.4860597	vero	-0.061940666
-4.3261876	variĝes	-0.061940666
-4.4860597	malpaceinca	-0.061940666
-4.2423353	produgtas	-0.06194064
-3.8659375	muzegon	-0.26299348
-4.4860597	ĝinro	-0.061940666
-4.3261876	danca	-0.061940666
-4.3261876	pungo	-0.061940666
-3.6673744	bila	-0.09219878
-4.4860597	plumaroj	-0.061940666
-3.9591823	semelaj	-0.10010457
-4.4860597	proveto	-0.061940666
-4.4860597	permisas	-0.061940666
-4.4860597	humanicon	-0.061940666
-4.0780797	vorkisas	-0.061940666
-4.3261876	namebeo	-0.061940666
-4.0780797	sudavrego	-0.120522544
-3.9591823	vormas	-0.18381225
-4.4860597	totalon	-0.061940666
-4.3261876	profencoj	-0.06194064
-4.4860597	ĉago	-0.061940666
-4.4860597	vormosa	-0.061940666
-4.4860597	ibinaĵoj	-0.061940666
-3.6172585	suda	-0.10435181
-3.7892172	destregto	-0.14912273
-4.4860597	taedonk	-0.061940666
-3.8659375	altaj	-0.061940666
-4.4860597	kradoj	-0.061940666
-3.6172585	iblas	-0.082340635
-4.4860597	bezancanoj	-0.061940666
-4.0780797	gomprines	-0.061940666
-3.9591823	atages	-0.061940666
-3.1457095	elen	-0.22618341
-4.3261876	aĉites	-0.061940666
-3.4601207	gilgajn	-0.061940666
-4.0780797	plemulto	-0.18381225
-4.4860597	donacoj	-0.061940666
-4.4860597	vameleanoj	-0.061940666
-3.7892172	amegoj	-0.2764251
-4.4860597	aldoni	-0.06194064
-4.4860597	plutono	-0.061940666
-3.8659375	semelas	-0.59050775
-4.4860597	tretono	-0.061940666
-4.3261876	luno	-0.061940666
-4.4860597	niptuno	-0.061940666
-4.0780797	lirnado	-0.120522544
-4.0780797	vareĝas	-0.061940666
-4.4860597	gomplega	-0.061940666
-4.3261876	nomumeta	-0.06194064
-4.2423353	rigtoro	-0.06194064
-4.4860597	simenareo	-0.061940666
-4.3261876	deocizo	-0.061940666
-4.3261876	zakribo	-0.061940666
-4.4860597	nuancoj	-0.061940666
-4.4860597	specoj	-0.061940666
-4.0780797	sifiri	-0.061940666
-3.9591823	fundeĝes	-0.061940666
-4.4860597	eĝis	-0.061940666
-4.3261876	meletgapteto	-0.061940666
-3.8659375	empireo	-0.28591385
-4.2423353	hinrego	-0.06194064
-4.0780797	propones	-0.061940666
-4.4860597	kiidzeĝon	-0.061940666
-4.2423353	gonsintes	-0.06194064
-4.4860597	trono	-0.061940666
-4.4860597	varaono	-0.061940666
-4.4860597	riprizinteta	-0.061940666
-4.4860597	paperusoj	-0.061940666
-4.3261876	junulo	-0.061940666
-3.7892172	breteo	-0.18381225
-4.4860597	prizono	-0.061940666
-3.8659375	glemato	-0.2764251
-3.9591823	montara	-0.06194064
-4.4860597	agereta	-0.061940666
-3.8659375	mono	-0.09444295
-4.4860597	vinance	-0.061940666
-4.4860597	poletekan	-0.061940666
-3.8659375	gareiron	-0.12957585
-3.531621	parolas	-0.15050326
-4.3261876	sereozi	-0.18825722
-4.4860597	gonsidirata	-0.061940666
-3.7892172	bonaj	-0.08700707
-4.0780797	muzioj	-0.061940666
-3.9591823	modirna	-0.061940666
-3.8659375	arto	-0.39658213
-4.4860597	turnu	-0.061940666
-4.3261876	romgatolega	-0.061940666
-4.4860597	pelkremlogo	-0.061940666
-4.2423353	artegolojn	-0.14194806
-4.3261876	alkibro	-0.061940666
-4.3261876	matimatego	-0.18825722
-4.2423353	niston	-0.061940666
-3.8659375	eli	-0.061940666
-4.3261876	mitas	-0.061940666
-3.8659375	ofojn	-0.09444295
-4.4860597	publeges	-0.061940666
-4.3261876	desputo	-0.061940666
-4.3261876	muzegajn	-0.061940666
-4.4860597	goligtojn	-0.061940666
-3.9591823	inere	-0.06194064
-4.4860597	gupion	-0.061940666
-4.4860597	tuto	-0.06194064
-4.4860597	loĝija	-0.061940666
-3.7892172	zono	-0.061940666
-4.4860597	elfirskihofinirplaco	-0.061940666
-4.4860597	eru	-0.061940666
-4.4860597	gune	-0.061940666
-4.4860597	antaŭgorton	-0.061940666
-4.0780797	batales	-0.120522544
-4.4860597	kaleceo	-0.061940666
-3.9591823	dizeras	-0.061940666
-4.4860597	dange	-0.061940666
-4.4860597	ŝajnsireoza	-0.061940666
-4.4860597	glensaluto	-0.061940666
-4.0780797	agompanes	-0.061940666
-4.4860597	liajn	-0.061940666
-3.7892172	fortojn	-0.13402027
-4.3261876	gomincis	-0.061940666
-3.9591823	lude	-0.061940666
-4.2423353	absedo	-0.1598836
-4.4860597	apoketaj	-0.061940666
-4.4860597	kotegaj	-0.061940666
-4.2423353	peleiroj	-0.14194806
-4.2423353	iligteta	-0.061940666
-4.4860597	parlamintano	-0.061940666
-3.6673744	monatoj	-0.10815695
-4.4860597	malgulmenas	-0.061940666
-4.4860597	januaro	-0.06194064
-3.7892172	daŭres	-0.13402027
-4.0780797	resgo	-0.061940666
-4.4860597	profoge	-0.061940666
-4.4860597	novan	-0.061940666
-4.4860597	gonvlegton	-0.061940666
-4.4860597	ditruontan	-0.061940666
-4.4860597	iburbordan	-0.061940666
-4.2423353	tiretoreon	-0.06194064
-3.6673744	vorta	-0.08443431
-3.7240367	ve	-0.09704681
-4.3261876	valsan	-0.061940666
-4.4860597	geloneon	-0.061940666
-4.4860597	mallifes	-0.061940666
-3.9591823	gapon	-0.12957585
-3.531621	ile	-0.08700707
-4.4860597	doma	-0.061940666
-4.0780797	paco	-0.061940666
-4.3261876	girno	-0.061940666
-3.9591823	socea	-0.06194064
-4.0780797	ordo	-0.18825722
-4.4860597	vororeinta	-0.061940666
-3.8659375	vidiracea	-0.13402027
-3.7240367	sia	-0.061940666
-3.6673744	natura	-0.08060354
-3.8659375	cirta	-0.10010457
-4.4860597	fifus	-0.061940666
-4.4860597	aspigtus	-0.061940666
-3.9591823	semeli	-0.1598836
-4.4860597	ikala	-0.061940666
-4.3261876	publega	-0.061940666
-4.2423353	sirfo	-0.14194806
-4.2423353	gultefata	-0.14194806
-3.8659375	tropegaj	-0.120522544
-4.3261876	subtropegaj	-0.14194806
-3.6673744	rikeonoj	-0.35787073
-4.4860597	nofjara	-0.061940666
-4.4860597	sirina	-0.061940666
-3.9591823	gomprinibli	-0.061940666
-4.3261876	vlafa	-0.06194064
-4.4860597	ruĝicbruna	-0.061940666
-4.2423353	presgaŭ	-0.06194064
-4.4860597	igmoveĝes	-0.061940666
-4.4860597	temimi	-0.061940666
-4.4860597	parolanton	-0.061940666
-4.4860597	rigonsceeĝes	-0.061940666
-4.3261876	fegtemoj	-0.18825722
-4.4860597	pisto	-0.061940666
-4.4860597	ĵiteĝes	-0.061940666
-4.4860597	letaĵo	-0.061940666
-4.3261876	ŝajnekes	-0.061940666
-3.7892172	sama	-0.08852762
-4.4860597	fegenkoj	-0.061940666
-4.4860597	fingetaj	-0.061940666
-4.4860597	lofino	-0.061940666
-4.4860597	blazono	-0.061940666
-4.4860597	fedeblas	-0.061940666
-4.4860597	milo	-0.061940666
-3.7892172	timpon	-0.120522544
-4.4860597	firgado	-0.061940666
-3.8659375	firgoj	-0.12947422
-4.2423353	tradugetaj	-0.18381225
-4.3261876	portukala	-0.061940666
-4.4860597	tradugestoj	-0.061940666
-4.4860597	entirpritestoj	-0.061940666
-4.4860597	lenkfoenstruestoj	-0.061940666
-4.0780797	paŝo	-0.061940666
-3.7240367	prizintes	-0.08700707
-4.4860597	opiritojn	-0.061940666
-4.4860597	aliajn	-0.061940666
-4.2423353	tiatraĵojn	-0.14194806
-4.4860597	trofeto	-0.061940666
-4.3261876	sigfo	-0.061940666
-3.7240367	gomincas	-0.0902446
-4.4860597	gonstruon	-0.061940666
-3.7892172	priĝijo	-0.111581065
-3.4283493	sangta	-0.09151808
-4.4860597	matio	-0.061940666
-4.4860597	apostolo	-0.061940666
-4.3261876	pasikas	-0.061940666
-4.0780797	ean	-0.061940666
-4.4860597	isgapas	-0.061940666
-4.4860597	landon	-0.061940666
-4.4860597	balono	-0.061940666
-4.4860597	propela	-0.061940666
-4.4860597	butirato	-0.061940666
-4.4860597	ogsedekakintoj	-0.061940666
-4.2423353	difino	-0.06194064
-4.2423353	farsofeo	-0.14194806
-3.531621	nofan	-0.06194064
-3.7892172	sis	-0.061940666
-3.9591823	simajnoj	-0.26299348
-4.4860597	pareĝado	-0.061940666
-3.9591823	semela	-0.26299348
-4.3261876	valgo	-0.061940666
-3.7240367	nordi	-0.33441705
-4.3261876	safa	-0.061940666
-4.2423353	enstrumintoj	-0.14194806
-4.4860597	tonojn	-0.061940666
-4.4860597	nomiĝas	-0.061940666
-4.4860597	blofenstrumentoj	-0.061940666
-4.4860597	sahara	-0.061940666
-4.3261876	dizirto	-0.061940666
-4.3261876	mekrantaj	-0.061940666
-4.4860597	mantilon	-0.061940666
-4.2423353	supozibli	-0.06194064
-4.3261876	vragceo	-0.061940666
-4.4860597	ispirantestaro	-0.061940666
-4.2423353	desponas	-0.14194806
-4.4860597	gonoj	-0.061940666
-4.4860597	grakanta	-0.061940666
-4.4860597	finton	-0.061940666
-3.7240367	plui	-0.09704681
-4.4860597	instruesto	-0.061940666
-4.0780797	amas	-0.061940666
-4.4860597	orkinon	-0.061940666
-3.8659375	vrugtoj	-0.14194806
-4.4860597	oblonkaj	-0.061940666
-4.2423353	rondaj	-0.06194064
-4.4860597	biroj	-0.061940666
-4.4860597	kridas	-0.061940666
-4.3261876	vrua	-0.061940666
-4.3261876	digdua	-0.061940666
-4.2423353	vorlaseta	-0.06194064
-4.4860597	igsplodekis	-0.061940666
-4.4860597	turojn	-0.061940666
-3.8659375	povas	-0.061940666
-4.4860597	sinlemi	-0.061940666
-3.6172585	cirti	-0.061940666
-4.4860597	ilprinenti	-0.061940666
-4.4860597	ristarekes	-0.061940666
-4.4860597	gonfini	-0.061940666
-4.4860597	ĉeomanĝantaj	-0.061940666
-4.4860597	fikitala	-0.061940666
-4.3261876	hikimoneas	-0.061940666
-4.3261876	lio	-0.06194064
-4.4860597	pirlaboros	-0.061940666
-4.4860597	alportos	-0.061940666
-4.3261876	gfindig	-0.18825722
-4.2423353	fojaĝo	-0.10815695
-3.6172585	lonka	-0.10010457
-4.4860597	bretaj	-0.061940666
-4.4860597	fedpungtoj	-0.061940666
-4.4860597	sanproblemo	-0.061940666
-4.4860597	ristregtaj	-0.061940666
-3.7892172	krafaj	-0.061940666
-4.4860597	cintjara	-0.061940666
-4.2423353	bidaŭrendi	-0.10010457
-3.6673744	gonas	-0.082340635
-3.1148686	prisgaŭ	-0.11414577
-3.9591823	nineun	-0.06194064
-4.4860597	urbiko	-0.061940666
-4.3261876	vrazo	-0.061940666
-4.4860597	ambekua	-0.061940666
-4.4860597	kardos	-0.061940666
-4.4860597	fedeli	-0.061940666
-4.4860597	sigriton	-0.061940666
-4.4860597	rompeĝes	-0.061940666
-4.2423353	malvacela	-0.06194064
-4.4860597	kronenkin	-0.061940666
-4.4860597	gometatanoj	-0.061940666
-4.4860597	dubojn	-0.061940666
-4.4860597	procizo	-0.061940666
-4.4860597	obilesgo	-0.061940666
-4.2423353	romo	-0.06194064
-4.4860597	valenta	-0.061940666
-4.3261876	admenestrado	-0.061940666
-4.4860597	pistpelessoltgesgun	-0.061940666
-4.4860597	selintiĝes	-0.061940666
-4.4860597	punca	-0.061940666
-4.4860597	pordogurtino	-0.061940666
-4.4860597	vorŝofiteĝes	-0.061940666
-4.4860597	salonon	-0.061940666
-4.4860597	grietaĵoj	-0.061940666
-4.2423353	intriprino	-0.06194064
-4.4860597	plija	-0.061940666
-4.0780797	oreinto	-0.22049086
-4.4860597	destregtaro	-0.061940666
-4.4860597	figos	-0.061940666
-4.4860597	franjon	-0.061940666
-4.4860597	kuros	-0.061940666
-4.4860597	bazaron	-0.061940666
-4.0780797	intombeketa	-0.120522544
-4.4860597	nasgeĝlogo	-0.061940666
-4.4860597	somaleo	-0.061940666
-3.5723324	unui	-0.061940666
-4.2423353	peanon	-0.14194806
-4.4860597	gonsirfatoreon	-0.061940666
-4.4860597	melano	-0.061940666
-3.7892172	giu	-0.061940666
-4.3261876	dicedon	-0.18825722
-4.4860597	isteme	-0.061940666
-4.4860597	brutobridado	-0.061940666
-4.3261876	ŝavoj	-0.061940666
-4.3261876	tradeceaj	-0.061940666
-4.3261876	porgoj	-0.18825722
-4.4860597	boatesto	-0.061940666
-4.4860597	saltes	-0.061940666
-4.4860597	sugceses	-0.061940666
-4.2423353	safe	-0.06194064
-4.4860597	naceico	-0.061940666
-4.3261876	malglara	-0.061940666
-3.7892172	iki	-0.061940666
-3.7892172	malsamaj	-0.061940666
-3.4283493	seaj	-0.06930985
-3.7240367	ciloj	-0.21878916
-4.3261876	vinas	-0.061940666
-4.0780797	vorlases	-0.10815695
-4.3261876	felaĝon	-0.061940666
-4.3261876	ilmekres	-0.061940666
-4.4860597	gomeseeta	-0.061940666
-4.4860597	norfikaj	-0.061940666
-4.4860597	armetaj	-0.061940666
-4.0780797	vortoj	-0.061940666
-4.2423353	meleta	-0.06194064
-4.4860597	gorespondanto	-0.061940666
-4.4860597	mofas	-0.061940666
-4.4860597	voston	-0.061940666
-3.6673744	samtimpi	-0.14340317
-3.7892172	krafi	-0.09444295
-4.4860597	entirvaco	-0.061940666
-4.4860597	solvado	-0.061940666
-4.4860597	toipletzsestimo	-0.061940666
-4.2423353	vacela	-0.14194806
-4.0780797	lia	-0.061940666
-4.4860597	dujara	-0.061940666
-3.9591823	feco	-0.20947833
-4.4860597	vamelianoj	-0.061940666
-4.4860597	ferino	-0.061940666
-4.3261876	dubas	-0.18825722
-4.4860597	minsa	-0.061940666
-4.3261876	sano	-0.18825722
-4.4860597	margojn	-0.061940666
-4.2423353	planas	-0.06194064
-4.3261876	lastajn	-0.061940666
-4.4860597	alfogojn	-0.061940666
-4.4860597	gontrebuado	-0.061940666
-4.3261876	vene	-0.061940666
-4.4860597	goligtadon	-0.061940666
-4.3261876	vibruaro	-0.061940666
-4.4860597	ragontis	-0.061940666
-4.4860597	semitrea	-0.06194064
-4.4860597	rialeco	-0.061940666
-4.4860597	dubenda	-0.061940666
-4.4860597	tetoles	-0.061940666
-4.4860597	ricinzon	-0.061940666
-4.2423353	gominco	-0.14194806
-4.4860597	horacea	-0.061940666
-4.4860597	ĉivderigtoro	-0.061940666
-3.9591823	radeo	-0.18381225
-3.9591823	gapte	-0.061940666
-3.8659375	atinton	-0.10010457
-4.4860597	tetolo	-0.06194064
-4.4860597	malgofrentoj	-0.061940666
-4.4860597	astiroedojn	-0.061940666
-4.4860597	ĉiteuj	-0.061940666
-4.3261876	voraj	-0.061940666
-4.4860597	destrebuado	-0.061940666
-4.3261876	venancoj	-0.061940666
-4.0780797	manĝaĵoj	-0.061940666
-4.4860597	admenestrata	-0.061940666
-4.0780797	ipesgopoj	-0.120522544
-4.4860597	kiedzeĝis	-0.061940666
-4.3261876	trean	-0.061940666
-3.9591823	vojon	-0.061940666
-4.4860597	garin	-0.061940666
-4.4860597	despono	-0.061940666
-4.0780797	glomp	-0.10815695
-4.4860597	mizalta	-0.061940666
-4.4860597	ievil	-0.061940666
-4.4860597	dolori	-0.061940666
-4.4860597	igĝimes	-0.061940666
-4.4860597	ravi	-0.061940666
-4.4860597	nogta	-0.061940666
-3.9591823	fedaĵo	-0.10815695
-4.4860597	ĉivminestro	-0.061940666
-4.0780797	ageres	-0.061940666
-4.4860597	malamegojn	-0.061940666
-3.8659375	poletega	-0.061940666
-4.2423353	maldigstra	-0.120522544
-3.494401	vlango	-0.24090342
-4.3261876	trebo	-0.061940666
-4.4860597	tagses	-0.061940666
-4.4860597	sinfaloraj	-0.061940666
-4.4860597	seirra	-0.061940666
-3.9591823	hijmo	-0.1598836
-4.4860597	montopentoj	-0.061940666
-4.0780797	malhilkrezaj	-0.22049086
-4.3261876	brunicaj	-0.06194064
-4.2423353	palaj	-0.06194064
-4.4860597	nuntimpe	-0.061940666
-4.4860597	til	-0.061940666
-4.4860597	afefo	-0.061940666
-4.4860597	lirta	-0.061940666
-4.4860597	alfenos	-0.061940666
-4.4860597	bizonataj	-0.061940666
-4.4860597	fezoj	-0.061940666
-4.0780797	litiroj	-0.061940666
-4.4860597	karanteantaj	-0.061940666
-4.4860597	feftinadon	-0.061940666
-4.4860597	guracadon	-0.061940666
-4.4860597	ilvluas	-0.061940666
-4.3261876	nordo	-0.06194064
-4.4860597	gazan	-0.061940666
-4.4860597	kiranela	-0.061940666
-4.4860597	riakoj	-0.061940666
-4.4860597	malsaneĝas	-0.061940666
-4.2423353	ogulo	-0.06194064
-4.3261876	ampligsekes	-0.18825722
-4.4860597	bebleotigon	-0.061940666
-4.4860597	ŝpare	-0.061940666
-4.4860597	urbistro	-0.06194064
-4.4860597	vureoza	-0.061940666
-4.3261876	valo	-0.120522544
-4.4860597	sofitrispubleko	-0.061940666
-4.4860597	feinon	-0.061940666
-4.4860597	empireestro	-0.061940666
-4.4860597	magsemeleano	-0.061940666
-4.4860597	megsigo	-0.061940666
-4.2423353	fezetes	-0.14194806
-4.4860597	ruenojn	-0.061940666
-4.4860597	portades	-0.061940666
-4.3261876	ogulfetrojn	-0.061940666
-4.4860597	fortega	-0.061940666
-4.4860597	baze	-0.061940666
-4.4860597	propraplaĉi	-0.061940666
-3.6673744	montras	-0.10815695
-4.4860597	amegicon	-0.061940666
-3.7240367	pirsonoj	-0.08700707
-4.0780797	iligtetaj	-0.061940666
-3.7892172	duoni	-0.061940666
-4.3261876	artesta	-0.061940666
-4.0780797	laŭlonki	-0.22049086
-4.3261876	tiraso	-0.061940666
-4.4860597	novzilando	-0.061940666
-4.0780797	ita	-0.061940666
-4.4860597	tuvgormorano	-0.061940666
-4.4860597	fuĝe	-0.061940666
-4.4860597	sudon	-0.061940666
-4.4860597	gaŝas	-0.061940666
-4.4860597	neco	-0.061940666
-4.4860597	mamulo	-0.061940666
-3.0336466	antaŭ	-0.17920467
-4.4860597	malapiro	-0.061940666
-3.6673744	entirnacea	-0.06194064
-4.4860597	gomunego	-0.061940666
-4.3261876	ĉifurbo	-0.061940666
-4.4860597	istradon	-0.061940666
-4.4860597	socialesma	-0.061940666
-3.6172585	parteo	-0.2034804
-4.4860597	sigfantan	-0.061940666
-3.9591823	peidoj	-0.16097508
-4.3261876	samaj	-0.06194064
-4.2423353	plingrisgulo	-0.14194806
-4.4860597	teujnĉe	-0.061940666
-3.9591823	mites	-0.061940666
-4.4860597	surboaton	-0.061940666
-4.4860597	filfitures	-0.061940666
-4.4860597	veŝgapte	-0.061940666
-4.4860597	ŝircu	-0.061940666
-4.0780797	laboroj	-0.061940666
-4.4860597	denamega	-0.061940666
-4.0780797	astronomeo	-0.061940666
-4.4860597	sunsestimo	-0.061940666
-4.3261876	prelaborado	-0.18825722
-3.9591823	envormoj	-0.10010457
-4.3261876	prociso	-0.06194064
-4.4860597	galgulado	-0.061940666
-4.4860597	semboloj	-0.061940666
-4.2423353	riste	-0.06194064
-4.4860597	fencint	-0.061940666
-3.8659375	provunda	-0.06194064
-4.3261876	iraro	-0.18825722
-4.4860597	relatantaj	-0.061940666
-4.4860597	gvadrata	-0.061940666
-4.3261876	klacea	-0.061940666
-4.3261876	statestega	-0.061940666
-4.3261876	miganego	-0.061940666
-4.0780797	tigsto	-0.09444295
-4.3261876	bazeĝas	-0.18825722
-4.0780797	tradugo	-0.18381225
-3.9591823	fegepideo	-0.10815695
-4.4860597	bilicon	-0.061940666
-4.4860597	pripareĝes	-0.061940666
-4.3261876	nomumes	-0.061940666
-4.4860597	rikinto	-0.061940666
-4.2423353	idzenon	-0.061940666
-4.3261876	marea	-0.061940666
-4.4860597	mideĉo	-0.061940666
-4.0780797	forto	-0.061940666
-4.4860597	nimnim	-0.061940666
-4.4860597	kinitigaj	-0.061940666
-4.4860597	fareoj	-0.061940666
-4.3261876	rizultas	-0.14194806
-3.3987446	malkranda	-0.07250677
-4.3261876	obsirfibla	-0.061940666
-4.4860597	fario	-0.061940666
-4.0780797	migsego	-0.18825722
-4.3261876	laŭti	-0.061940666
-4.4860597	gelomitroj	-0.061940666
-4.0780797	vales	-0.061940666
-4.4860597	nordanatoleaj	-0.061940666
-4.4860597	goneviraj	-0.061940666
-4.4860597	voleaj	-0.061940666
-3.494401	arbaroj	-0.37638843
-4.4860597	transeras	-0.061940666
-4.4860597	gaŭgazaj	-0.061940666
-4.4860597	megsaj	-0.061940666
-4.2423353	kemnazeon	-0.14194806
-4.4860597	abeturo	-0.061940666
-4.4860597	gonsulte	-0.061940666
-4.3261876	misaĝojn	-0.061940666
-4.4860597	sindetajn	-0.061940666
-4.4860597	dessindolesto	-0.061940666
-4.3261876	imvazes	-0.061940666
-4.4860597	krafon	-0.061940666
-4.0780797	homa	-0.061940666
-4.2423353	eno	-0.06194064
-4.4860597	mallonkbiga	-0.061940666
-3.8659375	envano	-0.08443431
-4.2423353	malpirmiseta	-0.14194806
-4.3261876	vileĉi	-0.061940666
-3.9591823	dormes	-0.061940666
-4.0780797	dorme	-0.061940666
-3.6673744	uzes	-0.19779672
-4.3261876	sgalon	-0.061940666
-4.4860597	bazetan	-0.061940666
-3.9591823	sestimo	-0.14536811
-4.4860597	arĝintosona	-0.061940666
-4.2423353	redado	-0.06194064
-4.4860597	enfano	-0.061940666
-4.4860597	nidevenetan	-0.061940666
-4.3261876	pizan	-0.061940666
-4.4860597	maltrangfelicon	-0.061940666
-4.4860597	egloĝes	-0.061940666
-4.3261876	kastilo	-0.061940666
-4.3261876	vorpiletaj	-0.061940666
-3.494401	kirmanoj	-0.094376765
-4.4860597	iosta	-0.061940666
-4.3261876	entiriseĝas	-0.18825722
-4.4860597	dimandoj	-0.061940666
-3.9591823	aparti	-0.061940666
-4.4860597	singontagti	-0.061940666
-4.2423353	heiraŭ	-0.06194064
-4.4860597	saluto	-0.061940666
-4.3261876	gora	-0.18825722
-4.3261876	cintri	-0.061940666
-4.3261876	placo	-0.061940666
-4.4860597	treumva	-0.061940666
-4.3261876	argo	-0.061940666
-4.4860597	grafaj	-0.061940666
-4.2423353	gomircaj	-0.06194064
-4.3261876	fojoj	-0.061940666
-4.3261876	gonduges	-0.18825722
-4.4860597	ilbi	-0.061940666
-4.4860597	rikanto	-0.061940666
-4.4860597	sempatea	-0.061940666
-4.4860597	kureoza	-0.061940666
-4.4860597	itas	-0.061940666
-4.4860597	igsponetaj	-0.061940666
-4.3261876	argiolokea	-0.061940666
-4.4860597	diceduaj	-0.061940666
-3.8659375	hirbino	-0.10010457
-4.2423353	aludas	-0.14194806
-4.3261876	vantazeo	-0.18825722
-4.4860597	dolĉfezaĝa	-0.061940666
-4.4860597	graveno	-0.061940666
-4.4860597	sireozmeinan	-0.061940666
-4.4860597	anklon	-0.061940666
-4.4860597	gorengleno	-0.061940666
-4.3261876	firfojo	-0.06194064
-4.4860597	trafegas	-0.061940666
-4.2423353	dimograteo	-0.14194806
-4.3261876	parteoj	-0.061940666
-4.4860597	digstraj	-0.061940666
-4.3261876	tistudo	-0.061940666
-4.3261876	plaĉas	-0.061940666
-3.8659375	sedas	-0.06194064
-4.3261876	strato	-0.061940666
-4.4860597	fiadugto	-0.061940666
-4.4860597	eresoj	-0.061940666
-4.4860597	oranĝaj	-0.061940666
-4.4860597	hili	-0.061940666
-4.3261876	breli	-0.061940666
-4.3261876	unkoj	-0.18825722
-3.9591823	simojn	-0.24612045
-4.2423353	somiri	-0.06194064
-4.4860597	linĉjo	-0.061940666
-4.3261876	sacirdoto	-0.061940666
-3.7240367	loĝantoj	-0.07680625
-4.3261876	safeĝes	-0.061940666
-4.3261876	loĝades	-0.061940666
-4.4860597	insulo	-0.061940666
-4.4860597	golonilo	-0.061940666
-3.7892172	vama	-0.06194064
-4.4860597	bjalestogo	-0.061940666
-4.4860597	enstruata	-0.061940666
-4.2423353	modirnaj	-0.06194064
-4.2423353	lebiraj	-0.06194064
-4.2423353	artoj	-0.28947777
-4.4860597	feolono	-0.061940666
-3.344978	gutemi	-0.12772116
-4.4860597	stogeta	-0.061940666
-4.4860597	faree	-0.061940666
-4.2423353	vistefalo	-0.061940666
-4.3261876	tradecea	-0.061940666
-3.3987446	ristas	-0.08700707
-4.4860597	ivinto	-0.061940666
-4.4860597	gfenan	-0.061940666
-4.4860597	semptomoj	-0.061940666
-4.4860597	unudu	-0.061940666
-4.0780797	mestira	-0.120522544
-3.5723324	apiras	-0.061940666
-4.4860597	urĝi	-0.061940666
-4.3261876	bizonata	-0.18825722
-4.0780797	pines	-0.061940666
-4.2423353	krandeoza	-0.06194064
-4.2423353	parolado	-0.06194064
-4.4860597	velharmoneijo	-0.061940666
-4.3261876	stilgre	-0.061940666
-4.4860597	safento	-0.061940666
-4.3261876	ĉiu	-0.061940666
-3.6673744	aviro	-0.21254483
-3.9591823	firda	-0.10815695
-4.3261876	nuna	-0.061940666
-4.4860597	dezajno	-0.061940666
-4.3261876	nacia	-0.061940666
-4.4860597	gongurso	-0.061940666
-4.4860597	elparoles	-0.061940666
-4.4860597	ŝtuparo	-0.061940666
-4.4860597	liman	-0.061940666
-4.3261876	mankas	-0.061940666
-4.3261876	opozeceo	-0.061940666
-4.4860597	astronomeesto	-0.061940666
-4.4860597	supraj	-0.061940666
-4.2423353	grono	-0.06194064
-4.3261876	beldoj	-0.061940666
-4.4860597	endegojn	-0.061940666
-4.4860597	ĥimea	-0.061940666
-4.3261876	gomponaĵo	-0.061940666
-4.2423353	sedeĝes	-0.06194064
-4.3261876	aĝo	-0.061940666
-4.4860597	krafico	-0.061940666
-4.4860597	mareaportalo	-0.061940666
-4.0780797	igrekardes	-0.120522544
-4.4860597	nibuletaj	-0.061940666
-3.3987446	oguloj	-0.18517278
-3.9591823	igfedes	-0.061940666
-4.4860597	glaron	-0.061940666
-4.0780797	neaj	-0.061940666
-4.3261876	fastaj	-0.061940666
-4.4860597	bizone	-0.061940666
-4.2423353	glarekon	-0.28947777
-4.4860597	dancis	-0.061940666
-4.4860597	potincoj	-0.061940666
-4.4860597	ogcidinto	-0.061940666
-4.2423353	erano	-0.120522544
-4.4860597	riordeges	-0.061940666
-4.4860597	loĝijon	-0.061940666
-4.4860597	gueres	-0.061940666
-4.4860597	takmanĝon	-0.061940666
-4.4860597	antaŭtugon	-0.061940666
-4.3261876	vezetes	-0.061940666
-4.4860597	butegojn	-0.061940666
-4.4860597	amegeno	-0.061940666
-3.7892172	ŝeaj	-0.08443431
-4.2423353	lepoj	-0.06194064
-4.3261876	trimites	-0.061940666
-4.4860597	ritenes	-0.061940666
-4.3261876	parolon	-0.061940666
-4.4860597	ekploru	-0.061940666
-4.4860597	purekestenoj	-0.061940666
-4.2423353	vistino	-0.14194806
-4.4860597	cirimonio	-0.061940666
-4.0780797	ible	-0.061940666
-4.4860597	moralon	-0.061940666
-3.494401	aleceo	-0.094376765
-4.4860597	guraĝes	-0.061940666
-4.0780797	dere	-0.120522544
-4.4860597	sgolo	-0.061940666
-4.0780797	vantazea	-0.061940666
-4.4860597	rialesmo	-0.061940666
-4.0780797	ĝeaj	-0.061940666
-4.4860597	prauloj	-0.061940666
-3.9591823	ankleo	-0.1598836
-4.4860597	raspleboneko	-0.061940666
-3.7892172	sugciso	-0.12539467
-4.3261876	junico	-0.061940666
-4.3261876	priviri	-0.061940666
-4.4860597	soperes	-0.061940666
-4.3261876	soldata	-0.061940666
-3.8659375	gareiro	-0.10010457
-4.4860597	agtorado	-0.061940666
-4.3261876	glaro	-0.061940666
-3.5723324	stares	-0.08060354
-4.4860597	mallifetaj	-0.061940666
-4.4860597	gunprimetaj	-0.061940666
-3.8659375	manoj	-0.10010457
-4.2423353	difos	-0.14194806
-4.4860597	mortento	-0.061940666
-4.4860597	vagdiliketo	-0.061940666
-3.9591823	igonomeo	-0.09444295
-4.4860597	mezo	-0.061940666
-4.4860597	murdo	-0.061940666
-4.4860597	atrio	-0.061940666
-3.7240367	piri	-0.7154465
-4.4860597	fajmara	-0.061940666
-4.3261876	gonstetuceo	-0.061940666
-4.4860597	prizedento	-0.061940666
-4.3261876	popolo	-0.120522544
-3.7240367	sip	-0.061940666
-4.4860597	gvendig	-0.061940666
-3.5723324	dones	-0.108641066
-4.4860597	sceincglasojn	-0.061940666
-4.3261876	rinoma	-0.06194064
-3.8659375	lifes	-0.16097508
-4.4860597	parolanteno	-0.061940666
-3.8659375	velmo	-0.061940666
-4.4860597	stribas	-0.061940666
-3.2971406	iste	-0.08064344
-4.3261876	sceinci	-0.061940666
-4.4860597	rialesma	-0.061940666
-4.4860597	pozetefajn	-0.061940666
-4.4860597	ricinzojn	-0.061940666
-3.8659375	branĉo	-0.14194806
-4.4860597	aplegeta	-0.061940666
-4.4860597	lenkfestego	-0.061940666
-4.2423353	rifuo	-0.0902446
-4.2423353	cilas	-0.061940666
-4.3261876	envorme	-0.061940666
-4.4860597	likantojn	-0.061940666
-4.4860597	isperantomofado	-0.061940666
-3.7892172	gulturo	-0.46352893
-3.7240367	folas	-0.061940666
-4.4860597	fefis	-0.061940666
-4.0780797	judaj	-0.061940666
-4.3261876	nasgeta	-0.14194806
-3.9591823	igonomea	-0.061940666
-4.3261876	ampligsas	-0.061940666
-4.3261876	gilkajn	-0.061940666
-4.4860597	destregtojn	-0.061940666
-4.0780797	ensulon	-0.10815695
-4.0780797	ogupes	-0.061940666
-4.3261876	japanoj	-0.061940666
-4.3261876	donu	-0.06194064
-4.4860597	venkron	-0.061940666
-4.4860597	avedulo	-0.061940666
-4.0780797	postulas	-0.061940666
-4.4860597	tine	-0.061940666
-3.7892172	fefon	-0.18507762
-4.4860597	pirieka	-0.061940666
-4.4860597	gonviso	-0.061940666
-4.4860597	sembolesmo	-0.061940666
-4.2423353	este	-0.061940666
-4.3261876	lekata	-0.18825722
-4.0780797	vloroj	-0.061940666
-4.2423353	uzetaj	-0.06194064
-4.2423353	gulturoj	-0.14194806
-4.4860597	igspozecees	-0.061940666
-3.9591823	ĉivaj	-0.061940666
-4.2423353	roluloj	-0.06194064
-4.4860597	ratman	-0.061940666
-3.7240367	nomeĝas	-0.17395663
-4.4860597	kineral	-0.061940666
-4.4860597	zarakoza	-0.061940666
-4.4860597	guire	-0.061940666
-4.2423353	manĝaĵojn	-0.14194806
-4.3261876	gergo	-0.10010457
-4.3261876	tragonstrueta	-0.061940666
-4.4860597	plealtekita	-0.061940666
-4.2423353	vondento	-0.14194806
-4.0780797	ispiranta	-0.061940666
-4.4860597	ildongooperatefo	-0.061940666
-4.3261876	manusgrepto	-0.061940666
-4.4860597	glasita	-0.061940666
-4.4860597	fundibla	-0.061940666
-4.2423353	riprodugteĝas	-0.061940666
-3.7892172	ensuloj	-0.18517278
-4.4860597	ŝancon	-0.061940666
-4.4860597	remarge	-0.061940666
-4.4860597	alfogon	-0.061940666
-4.4860597	vrigfencoj	-0.061940666
-3.9591823	endeĝina	-0.061940666
-3.7892172	avrego	-0.13402027
-4.3261876	turga	-0.061940666
-4.3261876	groatoj	-0.061940666
-4.4860597	nura	-0.061940666
-4.2423353	ferena	-0.061940666
-3.494401	mimbro	-0.47636133
-4.0780797	bingo	-0.10010457
-4.4860597	paceintoj	-0.061940666
-4.4860597	finentaj	-0.061940666
-4.3261876	ogazon	-0.061940666
-4.4860597	gorispondado	-0.061940666
-4.4860597	akfovluo	-0.061940666
-4.4860597	etas	-0.061940666
-3.6172585	norda	-0.061940666
-4.3261876	rigeono	-0.061940666
-4.4860597	agredojn	-0.061940666
-4.3261876	pridas	-0.061940666
-4.3261876	meino	-0.061940666
-4.4860597	vorpila	-0.061940666
-4.4860597	spetima	-0.061940666
-3.6673744	nombroj	-0.14433926
-4.4860597	ĉergaŭgalguloj	-0.061940666
-3.9591823	varetaj	-0.10815695
-4.4860597	vaguloj	-0.061940666
-4.4860597	artifareta	-0.061940666
-4.4860597	rizirfijo	-0.061940666
-4.4860597	baraĵo	-0.061940666
-4.3261876	profezas	-0.061940666
-4.4860597	agvon	-0.061940666
-4.4860597	najbaraj	-0.061940666
-4.2423353	gomunumoj	-0.14194806
-4.2423353	tees	-0.06194064
-4.3261876	cintraj	-0.061940666
-3.6673744	ŝtata	-0.061940666
-4.4860597	sindipindo	-0.061940666
-3.9591823	erlando	-0.18381225
-4.4860597	tirriformo	-0.061940666
-4.4860597	maldungeta	-0.061940666
-4.3261876	gondamneta	-0.061940666
-3.6172585	enstrues	-0.18650395
-4.4860597	hunkaran	-0.061940666
-4.2423353	lenkfon	-0.120522544
-4.4860597	galatrafa	-0.061940666
-4.4860597	lekes	-0.061940666
-4.3261876	hunkareon	-0.061940666
-4.4860597	agso	-0.061940666
-4.4860597	birlenoromo	-0.061940666
-4.4860597	ikzestas	-0.061940666
-4.4860597	produgtijo	-0.061940666
-4.4860597	iligtronegaj	-0.061940666
-4.4860597	komponantoj	-0.061940666
-4.4860597	stareke	-0.061940666
-4.4860597	igisto	-0.061940666
-4.4860597	gfantuma	-0.061940666
-4.2423353	vezego	-0.06194064
-3.7240367	sceinco	-0.08700707
-4.4860597	niigzesto	-0.061940666
-4.4860597	hazardo	-0.061940666
-4.3261876	ĉambroj	-0.061940666
-4.0780797	turestoj	-0.18381225
-4.3261876	ristoraceo	-0.061940666
-4.4860597	vungcias	-0.061940666
-4.4860597	efan	-0.061940666
-4.4860597	itindanti	-0.061940666
-3.9591823	ĵus	-0.061940666
-4.3261876	troves	-0.06194064
-3.275063	teun	-0.07732804
-4.3261876	papiron	-0.18825722
-4.4860597	ridono	-0.061940666
-4.2423353	duono	-0.14194806
-4.4860597	prineta	-0.061940666
-4.4860597	ŝuldo	-0.061940666
-4.4860597	propreitulo	-0.061940666
-4.3261876	sofita	-0.06194064
-4.0780797	unuavoji	-0.061940666
-4.2423353	rigones	-0.06194064
-4.4860597	poletegajn	-0.061940666
-4.4860597	kremojn	-0.061940666
-4.4860597	siaj	-0.061940666
-4.2423353	antaŭuloj	-0.06194064
-4.4860597	aleanco	-0.061940666
-4.2423353	franceo	-0.06194064
-4.2423353	dangi	-0.28947777
-4.2423353	ifintoj	-0.28947777
-4.4860597	stalino	-0.061940666
-4.2423353	rii	-0.06194064
-4.4860597	lebireĝes	-0.061940666
-4.4860597	vareaĵoj	-0.061940666
-4.4860597	pleboneketaj	-0.061940666
-4.2423353	firseoj	-0.14194806
-4.4860597	instrumintoj	-0.061940666
-4.4860597	sipulteta	-0.061940666
-4.4860597	bazelego	-0.061940666
-4.4860597	ambrozeo	-0.061940666
-4.2423353	rilatefi	-0.06194064
-4.0780797	vlukeloj	-0.22049086
-3.9591823	larĝaj	-0.10815695
-4.4860597	malistemon	-0.061940666
-4.4860597	rikestarprizedinto	-0.061940666
-4.3261876	murdeta	-0.06194064
-4.4860597	ganjono	-0.061940666
-3.8659375	fediblas	-0.14536811
-4.4860597	menijgoredoroj	-0.061940666
-4.4860597	riprizentas	-0.061940666
-4.2423353	ferenon	-0.14194806
-4.3261876	malprogsema	-0.061940666
-4.2423353	stacedomo	-0.061940666
-4.4860597	supo	-0.061940666
-4.4860597	pristeĝon	-0.061940666
-3.8659375	posidas	-0.06194064
-4.2423353	velaĝo	-0.10815695
-3.9591823	sirboj	-0.061940666
-4.2423353	publegekes	-0.06194064
-4.2423353	goligton	-0.06194064
-4.3261876	notoj	-0.061940666
-4.4860597	analetega	-0.061940666
-4.4860597	maŝeno	-0.061940666
-4.4860597	numiroj	-0.061940666
-4.4860597	psalmoj	-0.061940666
-4.4860597	psalmaro	-0.061940666
-4.3261876	hibria	-0.18825722
-4.4860597	krega	-0.061940666
-4.4860597	nituŝeta	-0.061940666
-4.4860597	fetricaj	-0.061940666
-4.4860597	stilplinan	-0.061940666
-4.0780797	ĉeilon	-0.120522544
-4.4860597	ordono	-0.061940666
-4.4860597	ivegas	-0.061940666
-4.4860597	bastono	-0.061940666
-4.4860597	lazarone	-0.061940666
-4.3261876	kiniralo	-0.061940666
-4.4860597	bobitgo	-0.061940666
-4.4860597	ĉivgomandanto	-0.061940666
-4.4860597	groata	-0.061940666
-3.6172585	armio	-0.31011152
-3.7240367	laboras	-0.14433926
-4.4860597	gongritan	-0.061940666
-4.4860597	propone	-0.061940666
-4.4860597	bankestroj	-0.061940666
-4.3261876	hafos	-0.061940666
-4.4860597	kaston	-0.061940666
-4.3261876	gride	-0.061940666
-4.0780797	teajn	-0.061940666
-4.4860597	vantazeajn	-0.061940666
-4.4860597	asirtojn	-0.061940666
-4.3261876	eblas	-0.061940666
-4.4860597	vorprini	-0.061940666
-4.3261876	ilimintojn	-0.061940666
-4.4860597	b	-0.061940666
-4.4860597	maljunuleno	-0.061940666
-4.4860597	hodiaŭ	-0.061940666
-4.0780797	ileres	-0.061940666
-4.4860597	rubrigo	-0.061940666
-4.4860597	brelas	-0.061940666
-4.4860597	vrape	-0.061940666
-4.4860597	inrekardas	-0.061940666
-4.4860597	vinistritoj	-0.061940666
-4.2423353	nordogcedinta	-0.06194064
-4.4860597	gonfinceo	-0.061940666
-4.4860597	nisudogcedintaj	-0.061940666
-4.4860597	kinitega	-0.061940666
-4.4860597	drengu	-0.061940666
-4.4860597	malplinekenta	-0.061940666
-4.4860597	klasiton	-0.061940666
-4.4860597	daŭreke	-0.061940666
-3.7892172	redites	-0.12957585
-4.4860597	varma	-0.061940666
-4.4860597	propakandesto	-0.061940666
-4.3261876	ispirantosoceito	-0.06194064
-4.4860597	lfofo	-0.061940666
-4.0780797	deris	-0.061940666
-4.2423353	dang	-0.28947777
-4.2423353	gonateĝes	-0.14194806
-3.9591823	artestoj	-0.10815695
-4.4860597	sciincestoj	-0.061940666
-3.9591823	horo	-0.061940666
-4.4860597	malsaĝa	-0.061940666
-4.4860597	poimo	-0.061940666
-4.4860597	tradugeta	-0.061940666
-4.4860597	istona	-0.061940666
-3.9591823	latena	-0.06194064
-4.3261876	jeda	-0.061940666
-3.8659375	japana	-0.06194064
-4.4860597	gominca	-0.061940666
-4.4860597	engleno	-0.061940666
-4.2423353	veno	-0.1598836
-4.2423353	fentri	-0.061940666
-4.2423353	timpiraturo	-0.061940666
-4.2423353	valas	-0.06194064
-4.4860597	vrostopungto	-0.061940666
-4.0780797	san	-0.061940666
-4.4860597	keuleano	-0.061940666
-4.2423353	gantono	-0.061940666
-4.4860597	vranglen	-0.061940666
-4.2423353	turesma	-0.06194064
-4.2423353	ijo	-0.06194064
-4.0780797	like	-0.10010457
-4.4860597	ĉapetroj	-0.061940666
-4.4860597	mitamorvozoj	-0.061940666
-4.3261876	ofedeo	-0.18825722
-4.3261876	senjoroj	-0.06194064
-4.4860597	niĝintelaj	-0.061940666
-4.4860597	vlanko	-0.061940666
-4.4860597	gamino	-0.061940666
-4.0780797	janjo	-0.10815695
-4.3261876	privirataj	-0.061940666
-3.7892172	plantoj	-0.14536811
-4.4860597	jinaj	-0.061940666
-4.3261876	hespanan	-0.06194064
-4.4860597	entirkiidzeĝanti	-0.061940666
-4.4860597	treboj	-0.061940666
-4.2423353	publegaj	-0.06194064
-4.4860597	riordeketaj	-0.061940666
-4.4860597	ispiribli	-0.06194064
-4.4860597	risaneĝes	-0.061940666
-4.4860597	manuil	-0.061940666
-4.4860597	amiga	-0.061940666
-3.531621	johano	-0.07788779
-3.7240367	enstruesto	-0.11360937
-4.4860597	trajto	-0.061940666
-4.4860597	diseknado	-0.061940666
-3.6172585	malmultaj	-0.061940666
-4.4860597	rapedleneoj	-0.061940666
-4.2423353	vekuro	-0.14194806
-3.7240367	letiraturo	-0.20336005
-3.6172585	miza	-0.061940666
-4.3261876	pozeceo	-0.061940666
-4.4860597	itna	-0.061940666
-4.3261876	naceesmo	-0.061940666
-4.4860597	cefeta	-0.061940666
-4.3261876	aranĝes	-0.061940666
-4.4860597	fifon	-0.061940666
-4.4860597	bibo	-0.061940666
-4.4860597	knabo	-0.061940666
-4.4860597	gnabino	-0.061940666
-4.2423353	sigso	-0.06194064
-4.4860597	ordinon	-0.061940666
-4.3261876	likeo	-0.061940666
-4.0780797	sigrita	-0.120522544
-4.3261876	isinco	-0.061940666
-4.4860597	publegon	-0.061940666
-4.0780797	gutema	-0.061940666
-4.4860597	melda	-0.061940666
-4.4860597	parolmaneiro	-0.061940666
-4.3261876	kravegaĵojn	-0.06194064
-4.2423353	pintraĵojn	-0.14194806
-4.4860597	obsirfa	-0.061940666
-4.4860597	transnacea	-0.061940666
-4.3261876	morafeo	-0.061940666
-4.4860597	olomouc	-0.061940666
-4.2423353	ovte	-0.061940666
-4.4860597	igstira	-0.061940666
-4.4860597	subĉeila	-0.061940666
-3.6172585	tiatro	-0.08443431
-4.3261876	virgo	-0.061940666
-3.3987446	gonsestas	-0.373529
-4.3261876	og	-0.061940666
-4.0780797	ogupas	-0.120522544
-4.3261876	apartan	-0.061940666
-4.3261876	kalireo	-0.061940666
-4.4860597	ruvus	-0.061940666
-4.4860597	iggomprines	-0.061940666
-4.4860597	sagristeo	-0.061940666
-4.2423353	aleĝas	-0.14194806
-4.3261876	lagton	-0.061940666
-4.4860597	veako	-0.061940666
-4.3261876	ĉino	-0.18825722
-4.4860597	brutalaĵoj	-0.061940666
-4.3261876	tradugesto	-0.061940666
-4.4860597	tignego	-0.061940666
-4.4860597	urbaj	-0.061940666
-4.4860597	riali	-0.061940666
-4.2423353	prafa	-0.10815695
-4.0780797	pricipi	-0.061940666
-4.4860597	simeda	-0.061940666
-4.3261876	lenkfaro	-0.18825722
-4.4860597	hitajro	-0.061940666
-4.4860597	gonvedo	-0.061940666
-4.4860597	nasgas	-0.061940666
-4.4860597	gonvedon	-0.061940666
-4.2423353	rando	-0.14194806
-4.4860597	haardt	-0.061940666
-4.4860597	partoprenes	-0.061940666
-4.3261876	blanguloj	-0.18825722
-4.4860597	aĉiteblaj	-0.061940666
-4.3261876	drengijo	-0.18825722
-4.4860597	algoholaj	-0.061940666
-4.4860597	aknosgeta	-0.061940666
-4.4860597	sufirina	-0.061940666
-3.7892172	ŝtato	-0.20336005
-4.4860597	bonikan	-0.061940666
-4.0780797	gontagton	-0.120522544
-4.4860597	amasoj	-0.061940666
-4.3261876	enfanoj	-0.061940666
-4.4860597	folumeno	-0.061940666
-4.3261876	kaso	-0.061940666
-4.4860597	enfirsi	-0.061940666
-4.4860597	proporcea	-0.061940666
-4.4860597	primo	-0.061940666
-4.0780797	baldaŭi	-0.061940666
-4.3261876	budapiŝta	-0.18825722
-4.2423353	opirijo	-0.14194806
-4.3261876	travluas	-0.061940666
-4.4860597	migonko	-0.061940666
-4.4860597	disaltes	-0.061940666
-4.4860597	ĝoji	-0.061940666
-4.4860597	amegon	-0.061940666
-4.4860597	ciriso	-0.061940666
-4.4860597	orbitas	-0.061940666
-4.4860597	astiroeda	-0.061940666
-4.2423353	marso	-0.120522544
-4.4860597	jupetiro	-0.061940666
-4.4860597	putnog	-0.061940666
-3.6673744	guni	-0.1131465
-4.4860597	ispiri	-0.061940666
-4.4860597	ispiranti	-0.061940666
-4.4860597	bando	-0.061940666
-4.4860597	hampton	-0.061940666
-4.2423353	gvar	-0.06194064
-4.2423353	veneta	-0.06194064
-4.4860597	var	-0.061940666
-4.3261876	taki	-0.18825722
-4.4860597	nokti	-0.061940666
-4.2423353	temo	-0.061940666
-4.3261876	ĉakrines	-0.061940666
-4.4860597	varentaj	-0.061940666
-4.4860597	vajron	-0.061940666
-4.4860597	iltrofos	-0.061940666
-4.4860597	vrangvurto	-0.061940666
-4.4860597	majno	-0.061940666
-4.4860597	nobilo	-0.061940666
-4.3261876	kemnazio	-0.061940666
-4.4860597	sangtkalo	-0.061940666
-3.9591823	mareo	-0.061940666
-4.4860597	riturneĝes	-0.061940666
-4.4860597	antaŭĉambro	-0.061940666
-4.4860597	igstirordenari	-0.061940666
-4.4860597	vigunda	-0.061940666
-4.2423353	gomponesto	-0.120522544
-3.6673744	populara	-0.09704681
-4.0780797	multigosta	-0.120522544
-4.4860597	gluzoj	-0.061940666
-4.4860597	sigundusvindo	-0.061940666
-4.4860597	pleaj	-0.061940666
-3.9591823	iŭropaj	-0.061940666
-4.4860597	produgtijoj	-0.061940666
-4.4860597	ispiranteĝes	-0.061940666
-4.2423353	fekli	-0.06194064
-4.3261876	transprines	-0.061940666
-4.4860597	pirsan	-0.061940666
-3.8659375	admenestra	-0.16097508
-4.4860597	tisaleo	-0.061940666
-4.3261876	taŭkaj	-0.061940666
-4.2423353	akoj	-0.06194064
-4.2423353	produgtoj	-0.06194064
-4.3261876	maezo	-0.061940666
-4.3261876	bofoj	-0.061940666
-4.4860597	larĝo	-0.061940666
-3.8659375	dipindas	-0.39658213
-4.3261876	modo	-0.06194064
-4.2423353	goloroj	-0.061940666
-4.4860597	disiknaĵoj	-0.061940666
-4.3261876	gapetano	-0.061940666
-4.4860597	aldirson	-0.061940666
-4.3261876	preparolos	-0.061940666
-4.4860597	trafefaĵojn	-0.061940666
-4.4860597	poluso	-0.061940666
-4.3261876	montros	-0.061940666
-4.4860597	aron	-0.061940666
-4.4860597	gureozaĵoj	-0.061940666
-3.8659375	manĝe	-0.10010457
-4.3261876	tredig	-0.061940666
-4.4860597	golombojn	-0.061940666
